<?xml version="1.0"?>
<opencv_storage>
<cascade>
  <stageType>BOOST</stageType>
  <featureType>HAAR</featureType>
  <height>50</height>
  <width>50</width>
  <stageParams>
    <boostType>GAB</boostType>
    <minHitRate>9.9500000476837158e-01</minHitRate>
    <maxFalseAlarm>5.0000000000000000e-01</maxFalseAlarm>
    <weightTrimRate>9.4999999999999996e-01</weightTrimRate>
    <maxDepth>1</maxDepth>
    <maxWeakCount>100</maxWeakCount></stageParams>
  <featureParams>
    <maxCatCount>0</maxCatCount>
    <featSize>1</featSize>
    <mode>BASIC</mode></featureParams>
  <stageNum>10</stageNum>
  <stages>
    <!-- stage 0 -->
    <_>
      <maxWeakCount>4</maxWeakCount>
      <stageThreshold>-5.5404607206583023e-02</stageThreshold>
      <weakClassifiers>
        <_>
          <internalNodes>
            0 -1 3 -2.2381515800952911e-01</internalNodes>
          <leafValues>
            6.4444446563720703e-01 -5.8139532804489136e-01</leafValues></_>
        <_>
          <internalNodes>
            0 -1 46 -1.6741496510803699e-03</internalNodes>
          <leafValues>
            5.9226793050765991e-01 -3.9366194605827332e-01</leafValues></_>
        <_>
          <internalNodes>
            0 -1 15 -1.4665053458884358e-04</internalNodes>
          <leafValues>
            -6.1459821462631226e-01 5.7016390562057495e-01</leafValues></_>
        <_>
          <internalNodes>
            0 -1 47 1.4060763533052523e-05</internalNodes>
          <leafValues>
            5.4832106828689575e-01 -6.3283920288085938e-01</leafValues></_></weakClassifiers></_>
    <!-- stage 1 -->
    <_>
      <maxWeakCount>5</maxWeakCount>
      <stageThreshold>-1.1111773550510406e-01</stageThreshold>
      <weakClassifiers>
        <_>
          <internalNodes>
            0 -1 13 -4.0912018448580056e-05</internalNodes>
          <leafValues>
            -4.5454546809196472e-01 5.9550559520721436e-01</leafValues></_>
        <_>
          <internalNodes>
            0 -1 0 -3.4532201243564487e-04</internalNodes>
          <leafValues>
            6.5610730648040771e-01 -4.1006660461425781e-01</leafValues></_>
        <_>
          <internalNodes>
            0 -1 14 -3.0594386771554127e-05</internalNodes>
          <leafValues>
            -6.4386653900146484e-01 4.5281010866165161e-01</leafValues></_>
        <_>
          <internalNodes>
            0 -1 9 -1.5306954272091389e-02</internalNodes>
          <leafValues>
            8.0363798141479492e-01 -3.8334587216377258e-01</leafValues></_>
        <_>
          <internalNodes>
            0 -1 16 3.5820985212922096e-03</internalNodes>
          <leafValues>
            -3.6602097749710083e-01 8.7086731195449829e-01</leafValues></_></weakClassifiers></_>
    <!-- stage 2 -->
    <_>
      <maxWeakCount>5</maxWeakCount>
      <stageThreshold>-3.8201576471328735e-01</stageThreshold>
      <weakClassifiers>
        <_>
          <internalNodes>
            0 -1 31 5.1394652109593153e-04</internalNodes>
          <leafValues>
            -1.3636364042758942e-01 1.</leafValues></_>
        <_>
          <internalNodes>
            0 -1 28 1.1135214008390903e-03</internalNodes>
          <leafValues>
            -2.6776200532913208e-01 8.6589592695236206e-01</leafValues></_>
        <_>
          <internalNodes>
            0 -1 41 -1.2759584933519363e-03</internalNodes>
          <leafValues>
            8.2267630100250244e-01 -3.7039104104042053e-01</leafValues></_>
        <_>
          <internalNodes>
            0 -1 17 -5.7562030851840973e-03</internalNodes>
          <leafValues>
            1. -2.8967112302780151e-01</leafValues></_>
        <_>
          <internalNodes>
            0 -1 42 -9.1839497908949852e-03</internalNodes>
          <leafValues>
            -5.1089531183242798e-01 6.8421721458435059e-01</leafValues></_></weakClassifiers></_>
    <!-- stage 3 -->
    <_>
      <maxWeakCount>4</maxWeakCount>
      <stageThreshold>1.7760638892650604e-01</stageThreshold>
      <weakClassifiers>
        <_>
          <internalNodes>
            0 -1 49 -8.9445733465254307e-04</internalNodes>
          <leafValues>
            -7.2413790225982666e-01 5.1923078298568726e-01</leafValues></_>
        <_>
          <internalNodes>
            0 -1 26 2.4384413845837116e-03</internalNodes>
          <leafValues>
            -3.7640833854675293e-01 7.9883605241775513e-01</leafValues></_>
        <_>
          <internalNodes>
            0 -1 36 -1.9871257245540619e-02</internalNodes>
          <leafValues>
            4.8495733737945557e-01 -6.8217563629150391e-01</leafValues></_>
        <_>
          <internalNodes>
            0 -1 29 2.8381443116813898e-03</internalNodes>
          <leafValues>
            -3.8204905390739441e-01 8.9062267541885376e-01</leafValues></_></weakClassifiers></_>
    <!-- stage 4 -->
    <_>
      <maxWeakCount>6</maxWeakCount>
      <stageThreshold>-2.5246477127075195e-01</stageThreshold>
      <weakClassifiers>
        <_>
          <internalNodes>
            0 -1 2 -5.9467321261763573e-03</internalNodes>
          <leafValues>
            -1. 4.8214286565780640e-01</leafValues></_>
        <_>
          <internalNodes>
            0 -1 32 3.6346714477986097e-04</internalNodes>
          <leafValues>
            -3.6551782488822937e-01 7.3767030239105225e-01</leafValues></_>
        <_>
          <internalNodes>
            0 -1 20 7.7719107503071427e-04</internalNodes>
          <leafValues>
            -2.2105096280574799e-01 9.3221676349639893e-01</leafValues></_>
        <_>
          <internalNodes>
            0 -1 4 -2.3030086595099419e-04</internalNodes>
          <leafValues>
            5.8315944671630859e-01 -4.8764201998710632e-01</leafValues></_>
        <_>
          <internalNodes>
            0 -1 27 3.5730988020077348e-04</internalNodes>
          <leafValues>
            -3.6209881305694580e-01 8.1951999664306641e-01</leafValues></_>
        <_>
          <internalNodes>
            0 -1 22 -3.6778622306883335e-03</internalNodes>
          <leafValues>
            7.9679030179977417e-01 -3.6909952759742737e-01</leafValues></_></weakClassifiers></_>
    <!-- stage 5 -->
    <_>
      <maxWeakCount>6</maxWeakCount>
      <stageThreshold>-6.1649698019027710e-01</stageThreshold>
      <weakClassifiers>
        <_>
          <internalNodes>
            0 -1 48 2.7073803357779980e-04</internalNodes>
          <leafValues>
            4.6296295523643494e-01 -6.8000000715255737e-01</leafValues></_>
        <_>
          <internalNodes>
            0 -1 38 -5.1101762801408768e-04</internalNodes>
          <leafValues>
            8.4391689300537109e-01 -3.2349494099617004e-01</leafValues></_>
        <_>
          <internalNodes>
            0 -1 19 -4.0972540155053139e-03</internalNodes>
          <leafValues>
            9.4025528430938721e-01 -2.3759067058563232e-01</leafValues></_>
        <_>
          <internalNodes>
            0 -1 7 8.0285492003895342e-05</internalNodes>
          <leafValues>
            3.4646621346473694e-01 -8.0906409025192261e-01</leafValues></_>
        <_>
          <internalNodes>
            0 -1 30 1.2715494449366815e-05</internalNodes>
          <leafValues>
            6.7644572257995605e-01 -4.6702188253402710e-01</leafValues></_>
        <_>
          <internalNodes>
            0 -1 40 -2.1061215084046125e-03</internalNodes>
          <leafValues>
            8.8303083181381226e-01 -3.9781865477561951e-01</leafValues></_></weakClassifiers></_>
    <!-- stage 6 -->
    <_>
      <maxWeakCount>6</maxWeakCount>
      <stageThreshold>-1.1219204217195511e-01</stageThreshold>
      <weakClassifiers>
        <_>
          <internalNodes>
            0 -1 24 -6.9309417158365250e-03</internalNodes>
          <leafValues>
            8.6363637447357178e-01 -5.6179776787757874e-02</leafValues></_>
        <_>
          <internalNodes>
            0 -1 6 1.4895169995725155e-02</internalNodes>
          <leafValues>
            -1.9900937378406525e-01 9.3447357416152954e-01</leafValues></_>
        <_>
          <internalNodes>
            0 -1 10 -1.0657718405127525e-02</internalNodes>
          <leafValues>
            8.4827899932861328e-01 -3.0614721775054932e-01</leafValues></_>
        <_>
          <internalNodes>
            0 -1 43 -1.4371002180268988e-05</internalNodes>
          <leafValues>
            -4.7289943695068359e-01 5.8080399036407471e-01</leafValues></_>
        <_>
          <internalNodes>
            0 -1 37 4.5881900005042553e-03</internalNodes>
          <leafValues>
            -3.7882399559020996e-01 8.8690996170043945e-01</leafValues></_>
        <_>
          <internalNodes>
            0 -1 8 -7.5195508543401957e-05</internalNodes>
          <leafValues>
            -6.7265182733535767e-01 4.4700303673744202e-01</leafValues></_></weakClassifiers></_>
    <!-- stage 7 -->
    <_>
      <maxWeakCount>4</maxWeakCount>
      <stageThreshold>3.3467286825180054e-01</stageThreshold>
      <weakClassifiers>
        <_>
          <internalNodes>
            0 -1 12 -5.1547885959735140e-05</internalNodes>
          <leafValues>
            -5.0000000000000000e-01 6.7058825492858887e-01</leafValues></_>
        <_>
          <internalNodes>
            0 -1 35 -3.3322102390229702e-03</internalNodes>
          <leafValues>
            8.9110773801803589e-01 -3.1851920485496521e-01</leafValues></_>
        <_>
          <internalNodes>
            0 -1 25 -4.9497379222884774e-04</internalNodes>
          <leafValues>
            -7.2854435443878174e-01 4.8297539353370667e-01</leafValues></_>
        <_>
          <internalNodes>
            0 -1 34 -3.5074721090495586e-03</internalNodes>
          <leafValues>
            7.8965377807617188e-01 -4.9847877025604248e-01</leafValues></_></weakClassifiers></_>
    <!-- stage 8 -->
    <_>
      <maxWeakCount>5</maxWeakCount>
      <stageThreshold>5.9149913489818573e-02</stageThreshold>
      <weakClassifiers>
        <_>
          <internalNodes>
            0 -1 44 8.9175606262870133e-05</internalNodes>
          <leafValues>
            6.0000002384185791e-01 -3.7500000000000000e-01</leafValues></_>
        <_>
          <internalNodes>
            0 -1 5 -1.6704152524471283e-01</internalNodes>
          <leafValues>
            -6.9752699136734009e-01 4.0254384279251099e-01</leafValues></_>
        <_>
          <internalNodes>
            0 -1 18 -1.8036480760201812e-03</internalNodes>
          <leafValues>
            1. -2.9940402507781982e-01</leafValues></_>
        <_>
          <internalNodes>
            0 -1 23 1.6234170179814100e-03</internalNodes>
          <leafValues>
            -3.4813573956489563e-01 9.4796329736709595e-01</leafValues></_>
        <_>
          <internalNodes>
            0 -1 21 -1.5018929261714220e-03</internalNodes>
          <leafValues>
            8.0421662330627441e-01 -2.9462891817092896e-01</leafValues></_></weakClassifiers></_>
    <!-- stage 9 -->
    <_>
      <maxWeakCount>5</maxWeakCount>
      <stageThreshold>2.6367470622062683e-01</stageThreshold>
      <weakClassifiers>
        <_>
          <internalNodes>
            0 -1 11 -2.9912278056144714e-01</internalNodes>
          <leafValues>
            -4.8936170339584351e-01 6.5116280317306519e-01</leafValues></_>
        <_>
          <internalNodes>
            0 -1 39 -1.5629499102942646e-04</internalNodes>
          <leafValues>
            -5.8535963296890259e-01 5.3416001796722412e-01</leafValues></_>
        <_>
          <internalNodes>
            0 -1 1 1.9385508494451642e-05</internalNodes>
          <leafValues>
            4.4517838954925537e-01 -7.4085122346878052e-01</leafValues></_>
        <_>
          <internalNodes>
            0 -1 45 1.7352284339722246e-04</internalNodes>
          <leafValues>
            4.4867381453514099e-01 -7.0331543684005737e-01</leafValues></_>
        <_>
          <internalNodes>
            0 -1 33 -7.9326685518026352e-03</internalNodes>
          <leafValues>
            -6.2947076559066772e-01 5.2918952703475952e-01</leafValues></_></weakClassifiers></_></stages>
  <features>
    <_>
      <rects>
        <_>
          0 5 4 45 -1.</_>
        <_>
          2 5 2 45 2.</_></rects>
      <tilted>0</tilted></_>
    <_>
      <rects>
        <_>
          0 13 2 2 -1.</_>
        <_>
          0 13 1 1 2.</_>
        <_>
          1 14 1 1 2.</_></rects>
      <tilted>0</tilted></_>
    <_>
      <rects>
        <_>
          0 45 2 3 -1.</_>
        <_>
          0 46 2 1 2.</_></rects>
      <tilted>0</tilted></_>
    <_>
      <rects>
        <_>
          1 3 18 47 -1.</_>
        <_>
          7 3 6 47 2.</_></rects>
      <tilted>0</tilted></_>
    <_>
      <rects>
        <_>
          1 28 14 4 -1.</_>
        <_>
          1 28 7 2 2.</_>
        <_>
          8 30 7 2 2.</_></rects>
      <tilted>0</tilted></_>
    <_>
      <rects>
        <_>
          1 40 33 9 -1.</_>
        <_>
          12 40 11 9 2.</_></rects>
      <tilted>0</tilted></_>
    <_>
      <rects>
        <_>
          2 6 16 24 -1.</_>
        <_>
          2 6 8 12 2.</_>
        <_>
          10 18 8 12 2.</_></rects>
      <tilted>0</tilted></_>
    <_>
      <rects>
        <_>
          2 10 2 1 -1.</_>
        <_>
          3 10 1 1 2.</_></rects>
      <tilted>0</tilted></_>
    <_>
      <rects>
        <_>
          2 16 2 4 -1.</_>
        <_>
          2 18 2 2 2.</_></rects>
      <tilted>0</tilted></_>
    <_>
      <rects>
        <_>
          3 1 14 42 -1.</_>
        <_>
          10 1 7 42 2.</_></rects>
      <tilted>0</tilted></_>
    <_>
      <rects>
        <_>
          3 10 16 18 -1.</_>
        <_>
          3 10 8 9 2.</_>
        <_>
          11 19 8 9 2.</_></rects>
      <tilted>0</tilted></_>
    <_>
      <rects>
        <_>
          3 15 21 30 -1.</_>
        <_>
          10 15 7 30 2.</_></rects>
      <tilted>0</tilted></_>
    <_>
      <rects>
        <_>
          4 3 2 2 -1.</_>
        <_>
          5 3 1 2 2.</_></rects>
      <tilted>0</tilted></_>
    <_>
      <rects>
        <_>
          5 0 1 2 -1.</_>
        <_>
          5 1 1 1 2.</_></rects>
      <tilted>0</tilted></_>
    <_>
      <rects>
        <_>
          5 3 1 2 -1.</_>
        <_>
          5 4 1 1 2.</_></rects>
      <tilted>0</tilted></_>
    <_>
      <rects>
        <_>
          6 48 20 2 -1.</_>
        <_>
          6 49 20 1 2.</_></rects>
      <tilted>0</tilted></_>
    <_>
      <rects>
        <_>
          7 15 4 25 -1.</_>
        <_>
          9 15 2 25 2.</_></rects>
      <tilted>0</tilted></_>
    <_>
      <rects>
        <_>
          7 20 8 16 -1.</_>
        <_>
          7 20 4 8 2.</_>
        <_>
          11 28 4 8 2.</_></rects>
      <tilted>0</tilted></_>
    <_>
      <rects>
        <_>
          8 17 4 20 -1.</_>
        <_>
          8 17 2 10 2.</_>
        <_>
          10 27 2 10 2.</_></rects>
      <tilted>0</tilted></_>
    <_>
      <rects>
        <_>
          8 27 18 2 -1.</_>
        <_>
          17 27 9 2 2.</_></rects>
      <tilted>0</tilted></_>
    <_>
      <rects>
        <_>
          8 40 19 2 -1.</_>
        <_>
          8 41 19 1 2.</_></rects>
      <tilted>0</tilted></_>
    <_>
      <rects>
        <_>
          16 11 30 4 -1.</_>
        <_>
          16 11 15 2 2.</_>
        <_>
          31 13 15 2 2.</_></rects>
      <tilted>0</tilted></_>
    <_>
      <rects>
        <_>
          17 5 3 18 -1.</_>
        <_>
          17 14 3 9 2.</_></rects>
      <tilted>0</tilted></_>
    <_>
      <rects>
        <_>
          17 8 14 4 -1.</_>
        <_>
          17 8 7 2 2.</_>
        <_>
          24 10 7 2 2.</_></rects>
      <tilted>0</tilted></_>
    <_>
      <rects>
        <_>
          17 19 10 10 -1.</_>
        <_>
          17 24 10 5 2.</_></rects>
      <tilted>0</tilted></_>
    <_>
      <rects>
        <_>
          20 0 4 6 -1.</_>
        <_>
          22 0 2 6 2.</_></rects>
      <tilted>0</tilted></_>
    <_>
      <rects>
        <_>
          20 26 10 7 -1.</_>
        <_>
          25 26 5 7 2.</_></rects>
      <tilted>0</tilted></_>
    <_>
      <rects>
        <_>
          22 12 6 2 -1.</_>
        <_>
          25 12 3 2 2.</_></rects>
      <tilted>0</tilted></_>
    <_>
      <rects>
        <_>
          22 12 26 4 -1.</_>
        <_>
          22 14 26 2 2.</_></rects>
      <tilted>0</tilted></_>
    <_>
      <rects>
        <_>
          23 28 26 1 -1.</_>
        <_>
          36 28 13 1 2.</_></rects>
      <tilted>0</tilted></_>
    <_>
      <rects>
        <_>
          23 41 4 4 -1.</_>
        <_>
          23 41 2 2 2.</_>
        <_>
          25 43 2 2 2.</_></rects>
      <tilted>0</tilted></_>
    <_>
      <rects>
        <_>
          24 7 4 13 -1.</_>
        <_>
          26 7 2 13 2.</_></rects>
      <tilted>0</tilted></_>
    <_>
      <rects>
        <_>
          24 14 21 2 -1.</_>
        <_>
          24 15 21 1 2.</_></rects>
      <tilted>0</tilted></_>
    <_>
      <rects>
        <_>
          28 43 3 6 -1.</_>
        <_>
          28 45 3 2 2.</_></rects>
      <tilted>0</tilted></_>
    <_>
      <rects>
        <_>
          29 0 8 10 -1.</_>
        <_>
          29 5 8 5 2.</_></rects>
      <tilted>0</tilted></_>
    <_>
      <rects>
        <_>
          30 18 3 14 -1.</_>
        <_>
          30 25 3 7 2.</_></rects>
      <tilted>0</tilted></_>
    <_>
      <rects>
        <_>
          30 35 6 12 -1.</_>
        <_>
          30 39 6 4 2.</_></rects>
      <tilted>0</tilted></_>
    <_>
      <rects>
        <_>
          33 13 10 16 -1.</_>
        <_>
          33 13 5 8 2.</_>
        <_>
          38 21 5 8 2.</_></rects>
      <tilted>0</tilted></_>
    <_>
      <rects>
        <_>
          33 16 6 4 -1.</_>
        <_>
          36 16 3 4 2.</_></rects>
      <tilted>0</tilted></_>
    <_>
      <rects>
        <_>
          35 1 6 4 -1.</_>
        <_>
          35 1 3 2 2.</_>
        <_>
          38 3 3 2 2.</_></rects>
      <tilted>0</tilted></_>
    <_>
      <rects>
        <_>
          36 12 4 34 -1.</_>
        <_>
          38 12 2 34 2.</_></rects>
      <tilted>0</tilted></_>
    <_>
      <rects>
        <_>
          38 13 6 22 -1.</_>
        <_>
          38 13 3 11 2.</_>
        <_>
          41 24 3 11 2.</_></rects>
      <tilted>0</tilted></_>
    <_>
      <rects>
        <_>
          39 8 1 21 -1.</_>
        <_>
          39 15 1 7 2.</_></rects>
      <tilted>0</tilted></_>
    <_>
      <rects>
        <_>
          42 5 2 4 -1.</_>
        <_>
          42 5 1 2 2.</_>
        <_>
          43 7 1 2 2.</_></rects>
      <tilted>0</tilted></_>
    <_>
      <rects>
        <_>
          44 24 4 4 -1.</_>
        <_>
          44 24 2 2 2.</_>
        <_>
          46 26 2 2 2.</_></rects>
      <tilted>0</tilted></_>
    <_>
      <rects>
        <_>
          45 3 4 2 -1.</_>
        <_>
          45 4 4 1 2.</_></rects>
      <tilted>0</tilted></_>
    <_>
      <rects>
        <_>
          45 43 2 3 -1.</_>
        <_>
          45 44 2 1 2.</_></rects>
      <tilted>0</tilted></_>
    <_>
      <rects>
        <_>
          46 11 4 1 -1.</_>
        <_>
          48 11 2 1 2.</_></rects>
      <tilted>0</tilted></_>
    <_>
      <rects>
        <_>
          48 3 2 10 -1.</_>
        <_>
          48 3 1 5 2.</_>
        <_>
          49 8 1 5 2.</_></rects>
      <tilted>0</tilted></_>
    <_>
      <rects>
        <_>
          48 14 1 12 -1.</_>
        <_>
          48 20 1 6 2.</_></rects>
      <tilted>0</tilted></_></features></cascade>
</opencv_storage>
