<?xml version="1.0"?>
<opencv_storage>
<cascade>
  <stageType>BOOST</stageType>
  <featureType>HAAR</featureType>
  <height>50</height>
  <width>50</width>
  <stageParams>
    <boostType>GAB</boostType>
    <minHitRate>9.9500000476837158e-01</minHitRate>
    <maxFalseAlarm>2.0000000298023224e-01</maxFalseAlarm>
    <weightTrimRate>9.4999999999999996e-01</weightTrimRate>
    <maxDepth>1</maxDepth>
    <maxWeakCount>100</maxWeakCount></stageParams>
  <featureParams>
    <maxCatCount>0</maxCatCount>
    <featSize>1</featSize>
    <mode>BASIC</mode></featureParams>
  <stageNum>15</stageNum>
  <stages>
    <!-- stage 0 -->
    <_>
      <maxWeakCount>14</maxWeakCount>
      <stageThreshold>-9.6761029958724976e-01</stageThreshold>
      <weakClassifiers>
        <_>
          <internalNodes>
            0 -1 217 5.9086002409458160e-02</internalNodes>
          <leafValues>
            -6.4485979080200195e-01 1.7241379618644714e-01</leafValues></_>
        <_>
          <internalNodes>
            0 -1 82 -6.5202368423342705e-03</internalNodes>
          <leafValues>
            -9.4159632921218872e-01 8.4647051990032196e-02</leafValues></_>
        <_>
          <internalNodes>
            0 -1 59 -3.5915498156100512e-03</internalNodes>
          <leafValues>
            2.7408587932586670e-01 -4.8055881261825562e-01</leafValues></_>
        <_>
          <internalNodes>
            0 -1 30 -5.3617761295754462e-05</internalNodes>
          <leafValues>
            -8.3613264560699463e-01 1.3054719567298889e-01</leafValues></_>
        <_>
          <internalNodes>
            0 -1 288 -1.7353706061840057e-02</internalNodes>
          <leafValues>
            6.5961062908172607e-01 -1.9347575306892395e-01</leafValues></_>
        <_>
          <internalNodes>
            0 -1 66 1.7072215676307678e-02</internalNodes>
          <leafValues>
            -1.7752046883106232e-01 6.1763310432434082e-01</leafValues></_>
        <_>
          <internalNodes>
            0 -1 18 -2.5765873491764069e-02</internalNodes>
          <leafValues>
            5.9644395112991333e-01 -1.8732038140296936e-01</leafValues></_>
        <_>
          <internalNodes>
            0 -1 21 -2.0583365112543106e-02</internalNodes>
          <leafValues>
            -1. 1.2280075252056122e-01</leafValues></_>
        <_>
          <internalNodes>
            0 -1 146 -1.3971328735351563e-01</internalNodes>
          <leafValues>
            4.0710595250129700e-01 -3.6652573943138123e-01</leafValues></_>
        <_>
          <internalNodes>
            0 -1 284 2.7856562286615372e-02</internalNodes>
          <leafValues>
            -2.2817918658256531e-01 5.5300486087799072e-01</leafValues></_>
        <_>
          <internalNodes>
            0 -1 61 -2.1200752235017717e-04</internalNodes>
          <leafValues>
            -9.1771715879440308e-01 1.4205656945705414e-01</leafValues></_>
        <_>
          <internalNodes>
            0 -1 159 -9.8047628998756409e-03</internalNodes>
          <leafValues>
            5.6028091907501221e-01 -2.7271774411201477e-01</leafValues></_>
        <_>
          <internalNodes>
            0 -1 93 -1.9975703209638596e-02</internalNodes>
          <leafValues>
            6.4585500955581665e-01 -1.7888784408569336e-01</leafValues></_>
        <_>
          <internalNodes>
            0 -1 194 4.1572735644876957e-03</internalNodes>
          <leafValues>
            -2.5344485044479370e-01 4.9123761057853699e-01</leafValues></_></weakClassifiers></_>
    <!-- stage 1 -->
    <_>
      <maxWeakCount>15</maxWeakCount>
      <stageThreshold>-9.6088355779647827e-01</stageThreshold>
      <weakClassifiers>
        <_>
          <internalNodes>
            0 -1 185 -7.3205481749027967e-04</internalNodes>
          <leafValues>
            1.1940298229455948e-01 -6.1538463830947876e-01</leafValues></_>
        <_>
          <internalNodes>
            0 -1 154 -3.3739602658897638e-03</internalNodes>
          <leafValues>
            5.4072660207748413e-01 -2.4641601741313934e-01</leafValues></_>
        <_>
          <internalNodes>
            0 -1 138 2.6504460256546736e-03</internalNodes>
          <leafValues>
            -2.0038957893848419e-01 5.5542111396789551e-01</leafValues></_>
        <_>
          <internalNodes>
            0 -1 47 -2.0086195945623331e-05</internalNodes>
          <leafValues>
            -6.4483493566513062e-01 1.8474537134170532e-01</leafValues></_>
        <_>
          <internalNodes>
            0 -1 200 -4.0865552728064358e-04</internalNodes>
          <leafValues>
            6.1998617649078369e-01 -1.5849667787551880e-01</leafValues></_>
        <_>
          <internalNodes>
            0 -1 77 -2.1983565602567978e-05</internalNodes>
          <leafValues>
            -6.4123344421386719e-01 2.1209561824798584e-01</leafValues></_>
        <_>
          <internalNodes>
            0 -1 245 9.4124028692021966e-04</internalNodes>
          <leafValues>
            -2.1759024262428284e-01 5.3373813629150391e-01</leafValues></_>
        <_>
          <internalNodes>
            0 -1 249 -4.5539829879999161e-03</internalNodes>
          <leafValues>
            4.9037134647369385e-01 -2.0114843547344208e-01</leafValues></_>
        <_>
          <internalNodes>
            0 -1 13 -3.2447533158119768e-05</internalNodes>
          <leafValues>
            -5.0684690475463867e-01 2.0033010840415955e-01</leafValues></_>
        <_>
          <internalNodes>
            0 -1 1 2.2991560399532318e-02</internalNodes>
          <leafValues>
            -1.4940898120403290e-01 7.6803469657897949e-01</leafValues></_>
        <_>
          <internalNodes>
            0 -1 155 -2.9443087987601757e-03</internalNodes>
          <leafValues>
            4.5158919692039490e-01 -2.3995763063430786e-01</leafValues></_>
        <_>
          <internalNodes>
            0 -1 95 -6.3926973380148411e-03</internalNodes>
          <leafValues>
            4.8627701401710510e-01 -2.4424314498901367e-01</leafValues></_>
        <_>
          <internalNodes>
            0 -1 51 4.2198533192276955e-03</internalNodes>
          <leafValues>
            -2.0819005370140076e-01 5.9033316373825073e-01</leafValues></_>
        <_>
          <internalNodes>
            0 -1 325 -8.1510326708666980e-05</internalNodes>
          <leafValues>
            -6.8733882904052734e-01 1.7592309415340424e-01</leafValues></_>
        <_>
          <internalNodes>
            0 -1 128 -3.6761739756911993e-03</internalNodes>
          <leafValues>
            5.3807735443115234e-01 -2.1434739232063293e-01</leafValues></_></weakClassifiers></_>
    <!-- stage 2 -->
    <_>
      <maxWeakCount>18</maxWeakCount>
      <stageThreshold>-9.9886083602905273e-01</stageThreshold>
      <weakClassifiers>
        <_>
          <internalNodes>
            0 -1 243 -8.6976245045661926e-02</internalNodes>
          <leafValues>
            -9.2899405956268311e-01 -3.1898239254951477e-01</leafValues></_>
        <_>
          <internalNodes>
            0 -1 148 -3.5894408822059631e-02</internalNodes>
          <leafValues>
            1.2160959653556347e-02 -8.1528723239898682e-01</leafValues></_>
        <_>
          <internalNodes>
            0 -1 166 -5.7632768154144287e-01</internalNodes>
          <leafValues>
            -6.4517360925674438e-01 1.0616423934698105e-01</leafValues></_>
        <_>
          <internalNodes>
            0 -1 104 -4.7046002000570297e-03</internalNodes>
          <leafValues>
            4.0508773922920227e-01 -2.4564477801322937e-01</leafValues></_>
        <_>
          <internalNodes>
            0 -1 99 -3.6829193122684956e-03</internalNodes>
          <leafValues>
            7.1789288520812988e-01 -7.9828932881355286e-02</leafValues></_>
        <_>
          <internalNodes>
            0 -1 120 6.2117613852024078e-03</internalNodes>
          <leafValues>
            -1.7745129764080048e-01 4.8526999354362488e-01</leafValues></_>
        <_>
          <internalNodes>
            0 -1 279 -1.0363163892179728e-04</internalNodes>
          <leafValues>
            -5.5230116844177246e-01 1.9196139276027679e-01</leafValues></_>
        <_>
          <internalNodes>
            0 -1 65 -1.6402073670178652e-03</internalNodes>
          <leafValues>
            5.2155619859695435e-01 -1.9796621799468994e-01</leafValues></_>
        <_>
          <internalNodes>
            0 -1 273 2.0312713459134102e-03</internalNodes>
          <leafValues>
            -1.7114575207233429e-01 5.2804684638977051e-01</leafValues></_>
        <_>
          <internalNodes>
            0 -1 113 -1.2895353138446808e-03</internalNodes>
          <leafValues>
            4.7606396675109863e-01 -2.2149004042148590e-01</leafValues></_>
        <_>
          <internalNodes>
            0 -1 357 2.4618097086204216e-05</internalNodes>
          <leafValues>
            2.1215353906154633e-01 -4.7626742720603943e-01</leafValues></_>
        <_>
          <internalNodes>
            0 -1 86 -9.2264002887532115e-05</internalNodes>
          <leafValues>
            2.8529870510101318e-01 -3.1110867857933044e-01</leafValues></_>
        <_>
          <internalNodes>
            0 -1 293 3.9105569012463093e-03</internalNodes>
          <leafValues>
            -1.6690137982368469e-01 5.5133777856826782e-01</leafValues></_>
        <_>
          <internalNodes>
            0 -1 144 -2.8795218895538710e-05</internalNodes>
          <leafValues>
            -5.0856095552444458e-01 1.8528518080711365e-01</leafValues></_>
        <_>
          <internalNodes>
            0 -1 62 1.9426523067522794e-04</internalNodes>
          <leafValues>
            1.2508836388587952e-01 -6.8941611051559448e-01</leafValues></_>
        <_>
          <internalNodes>
            0 -1 198 -2.9748493034276180e-05</internalNodes>
          <leafValues>
            2.8793942928314209e-01 -3.2549634575843811e-01</leafValues></_>
        <_>
          <internalNodes>
            0 -1 69 -6.6386284306645393e-03</internalNodes>
          <leafValues>
            6.3805097341537476e-01 -1.6392324864864349e-01</leafValues></_>
        <_>
          <internalNodes>
            0 -1 151 1.0679026599973440e-03</internalNodes>
          <leafValues>
            -1.4430682361125946e-01 6.3939833641052246e-01</leafValues></_></weakClassifiers></_>
    <!-- stage 3 -->
    <_>
      <maxWeakCount>25</maxWeakCount>
      <stageThreshold>-6.7985254526138306e-01</stageThreshold>
      <weakClassifiers>
        <_>
          <internalNodes>
            0 -1 250 -1.4214677736163139e-02</internalNodes>
          <leafValues>
            5.7142859697341919e-01 -5.1533740758895874e-01</leafValues></_>
        <_>
          <internalNodes>
            0 -1 297 -4.1191512718796730e-04</internalNodes>
          <leafValues>
            -6.2751436233520508e-01 5.7371027767658234e-02</leafValues></_>
        <_>
          <internalNodes>
            0 -1 348 -4.1964161937357858e-05</internalNodes>
          <leafValues>
            -4.7061249613761902e-01 1.5296557545661926e-01</leafValues></_>
        <_>
          <internalNodes>
            0 -1 329 1.0265491437166929e-03</internalNodes>
          <leafValues>
            -1.6393485665321350e-01 4.8019817471504211e-01</leafValues></_>
        <_>
          <internalNodes>
            0 -1 262 9.9390395916998386e-05</internalNodes>
          <leafValues>
            -2.7796575427055359e-01 2.7324053645133972e-01</leafValues></_>
        <_>
          <internalNodes>
            0 -1 349 1.6352796228602529e-04</internalNodes>
          <leafValues>
            1.4811219274997711e-01 -6.8214058876037598e-01</leafValues></_>
        <_>
          <internalNodes>
            0 -1 126 5.8494057157076895e-05</internalNodes>
          <leafValues>
            1.6004914045333862e-01 -4.9523660540580750e-01</leafValues></_>
        <_>
          <internalNodes>
            0 -1 276 -5.3024962544441223e-03</internalNodes>
          <leafValues>
            1.3252554833889008e-01 -5.7928478717803955e-01</leafValues></_>
        <_>
          <internalNodes>
            0 -1 22 -1.0203829035162926e-02</internalNodes>
          <leafValues>
            -5.8296257257461548e-01 1.2930975854396820e-01</leafValues></_>
        <_>
          <internalNodes>
            0 -1 338 -5.6021846830844879e-05</internalNodes>
          <leafValues>
            -5.3819096088409424e-01 1.5490812063217163e-01</leafValues></_>
        <_>
          <internalNodes>
            0 -1 229 2.8846366330981255e-03</internalNodes>
          <leafValues>
            -1.2846794724464417e-01 6.9366085529327393e-01</leafValues></_>
        <_>
          <internalNodes>
            0 -1 111 -3.2392649445682764e-03</internalNodes>
          <leafValues>
            2.4531196057796478e-01 -3.5326701402664185e-01</leafValues></_>
        <_>
          <internalNodes>
            0 -1 277 1.5804107533767819e-04</internalNodes>
          <leafValues>
            -2.1582949161529541e-01 4.1534256935119629e-01</leafValues></_>
        <_>
          <internalNodes>
            0 -1 343 -3.7008219806011766e-05</internalNodes>
          <leafValues>
            -4.9209302663803101e-01 1.7030276358127594e-01</leafValues></_>
        <_>
          <internalNodes>
            0 -1 300 -3.0114490538835526e-02</internalNodes>
          <leafValues>
            4.5101201534271240e-01 -1.7559780180454254e-01</leafValues></_>
        <_>
          <internalNodes>
            0 -1 32 -1.5936114359647036e-03</internalNodes>
          <leafValues>
            5.5929845571517944e-01 -1.3552284240722656e-01</leafValues></_>
        <_>
          <internalNodes>
            0 -1 319 2.2797314450144768e-03</internalNodes>
          <leafValues>
            -1.3786908984184265e-01 6.0856026411056519e-01</leafValues></_>
        <_>
          <internalNodes>
            0 -1 4 9.3654816737398505e-05</internalNodes>
          <leafValues>
            1.3159026205539703e-01 -6.2606054544448853e-01</leafValues></_>
        <_>
          <internalNodes>
            0 -1 226 -6.9372624158859253e-02</internalNodes>
          <leafValues>
            -6.4294242858886719e-01 1.1292986571788788e-01</leafValues></_>
        <_>
          <internalNodes>
            0 -1 215 7.1866561484057456e-06</internalNodes>
          <leafValues>
            -2.8962904214859009e-01 2.7622500061988831e-01</leafValues></_>
        <_>
          <internalNodes>
            0 -1 265 -2.0877015776932240e-03</internalNodes>
          <leafValues>
            2.3238696157932281e-01 -3.8758325576782227e-01</leafValues></_>
        <_>
          <internalNodes>
            0 -1 78 -2.2429648041725159e-01</internalNodes>
          <leafValues>
            -3.2354891300201416e-01 2.5907862186431885e-01</leafValues></_>
        <_>
          <internalNodes>
            0 -1 326 -1.8472000374458730e-04</internalNodes>
          <leafValues>
            -4.9391141533851624e-01 1.7274819314479828e-01</leafValues></_>
        <_>
          <internalNodes>
            0 -1 206 1.7132216598838568e-03</internalNodes>
          <leafValues>
            -2.1394518017768860e-01 3.8741838932037354e-01</leafValues></_>
        <_>
          <internalNodes>
            0 -1 256 -8.1726815551519394e-03</internalNodes>
          <leafValues>
            8.5666000843048096e-01 -9.9705547094345093e-02</leafValues></_></weakClassifiers></_>
    <!-- stage 4 -->
    <_>
      <maxWeakCount>25</maxWeakCount>
      <stageThreshold>-7.9541349411010742e-01</stageThreshold>
      <weakClassifiers>
        <_>
          <internalNodes>
            0 -1 167 -7.3861435055732727e-02</internalNodes>
          <leafValues>
            7.8947371244430542e-01 -5.0680786371231079e-01</leafValues></_>
        <_>
          <internalNodes>
            0 -1 33 2.1121388272149488e-05</internalNodes>
          <leafValues>
            8.4946893155574799e-02 -5.5982571840286255e-01</leafValues></_>
        <_>
          <internalNodes>
            0 -1 212 -9.8044695332646370e-03</internalNodes>
          <leafValues>
            -3.6053869128227234e-01 1.8964038789272308e-01</leafValues></_>
        <_>
          <internalNodes>
            0 -1 213 -1.8146133515983820e-03</internalNodes>
          <leafValues>
            3.1825089454650879e-01 -2.0570567250251770e-01</leafValues></_>
        <_>
          <internalNodes>
            0 -1 234 3.4799313289113343e-04</internalNodes>
          <leafValues>
            -1.3208395242691040e-01 5.2733355760574341e-01</leafValues></_>
        <_>
          <internalNodes>
            0 -1 350 2.3097290977602825e-05</internalNodes>
          <leafValues>
            1.9470208883285522e-01 -3.8520887494087219e-01</leafValues></_>
        <_>
          <internalNodes>
            0 -1 263 -2.3553648497909307e-04</internalNodes>
          <leafValues>
            -7.5004047155380249e-01 1.0438738018274307e-01</leafValues></_>
        <_>
          <internalNodes>
            0 -1 20 -1.4987661503255367e-02</internalNodes>
          <leafValues>
            4.8132601380348206e-01 -1.7368631064891815e-01</leafValues></_>
        <_>
          <internalNodes>
            0 -1 23 -5.7404111139476299e-03</internalNodes>
          <leafValues>
            5.1129215955734253e-01 -1.4502003788948059e-01</leafValues></_>
        <_>
          <internalNodes>
            0 -1 72 4.3826141336467117e-05</internalNodes>
          <leafValues>
            1.6263577342033386e-01 -4.7894418239593506e-01</leafValues></_>
        <_>
          <internalNodes>
            0 -1 182 -3.0388184823095798e-03</internalNodes>
          <leafValues>
            5.4702085256576538e-01 -1.5474493801593781e-01</leafValues></_>
        <_>
          <internalNodes>
            0 -1 112 -3.2139557600021362e-01</internalNodes>
          <leafValues>
            -7.0646739006042480e-01 1.1228692531585693e-01</leafValues></_>
        <_>
          <internalNodes>
            0 -1 38 -9.2193484306335449e-04</internalNodes>
          <leafValues>
            3.3916214108467102e-01 -2.4292659759521484e-01</leafValues></_>
        <_>
          <internalNodes>
            0 -1 336 3.5326684155734256e-05</internalNodes>
          <leafValues>
            1.7402741312980652e-01 -4.6690776944160461e-01</leafValues></_>
        <_>
          <internalNodes>
            0 -1 80 8.1107830628752708e-03</internalNodes>
          <leafValues>
            7.2907738387584686e-02 -8.7555462121963501e-01</leafValues></_>
        <_>
          <internalNodes>
            0 -1 158 2.5537095498293638e-03</internalNodes>
          <leafValues>
            -1.1236605793237686e-01 7.6116073131561279e-01</leafValues></_>
        <_>
          <internalNodes>
            0 -1 258 -1.9902558997273445e-03</internalNodes>
          <leafValues>
            4.2287376523017883e-01 -1.7879918217658997e-01</leafValues></_>
        <_>
          <internalNodes>
            0 -1 0 -1.8683046102523804e-02</internalNodes>
          <leafValues>
            -5.3994345664978027e-01 1.3302312791347504e-01</leafValues></_>
        <_>
          <internalNodes>
            0 -1 109 -1.1794589227065444e-04</internalNodes>
          <leafValues>
            -3.4162467718124390e-01 2.0800650119781494e-01</leafValues></_>
        <_>
          <internalNodes>
            0 -1 36 2.1188108075875789e-04</internalNodes>
          <leafValues>
            9.9622122943401337e-02 -7.4154549837112427e-01</leafValues></_>
        <_>
          <internalNodes>
            0 -1 7 -1.5406440943479538e-03</internalNodes>
          <leafValues>
            5.2242827415466309e-01 -1.7732195556163788e-01</leafValues></_>
        <_>
          <internalNodes>
            0 -1 347 -1.0329620999982581e-04</internalNodes>
          <leafValues>
            -3.6022752523422241e-01 1.8803194165229797e-01</leafValues></_>
        <_>
          <internalNodes>
            0 -1 71 5.9687413275241852e-02</internalNodes>
          <leafValues>
            -1.0474956780672073e-01 7.4323767423629761e-01</leafValues></_>
        <_>
          <internalNodes>
            0 -1 291 3.2366071827709675e-03</internalNodes>
          <leafValues>
            -1.2557400763034821e-01 5.5856454372406006e-01</leafValues></_>
        <_>
          <internalNodes>
            0 -1 308 -1.5605930238962173e-02</internalNodes>
          <leafValues>
            7.6688623428344727e-01 -1.0560003668069839e-01</leafValues></_></weakClassifiers></_>
    <!-- stage 5 -->
    <_>
      <maxWeakCount>23</maxWeakCount>
      <stageThreshold>-1.0244919061660767e+00</stageThreshold>
      <weakClassifiers>
        <_>
          <internalNodes>
            0 -1 163 -8.6034238338470459e-02</internalNodes>
          <leafValues>
            6.0000002384185791e-01 -5.1999998092651367e-01</leafValues></_>
        <_>
          <internalNodes>
            0 -1 6 9.2749498435296118e-05</internalNodes>
          <leafValues>
            6.7326828837394714e-02 -8.8097310066223145e-01</leafValues></_>
        <_>
          <internalNodes>
            0 -1 339 3.6845172871835530e-05</internalNodes>
          <leafValues>
            1.5441818535327911e-01 -6.2241357564926147e-01</leafValues></_>
        <_>
          <internalNodes>
            0 -1 16 1.1166687181685120e-04</internalNodes>
          <leafValues>
            9.1685228049755096e-02 -8.4839653968811035e-01</leafValues></_>
        <_>
          <internalNodes>
            0 -1 318 1.9227851182222366e-02</internalNodes>
          <leafValues>
            -1.1362729966640472e-01 7.5028556585311890e-01</leafValues></_>
        <_>
          <internalNodes>
            0 -1 108 -1.4084609574638307e-04</internalNodes>
          <leafValues>
            -3.8552829623222351e-01 1.9870325922966003e-01</leafValues></_>
        <_>
          <internalNodes>
            0 -1 133 2.3814211599528790e-03</internalNodes>
          <leafValues>
            -1.3443142175674438e-01 4.9940276145935059e-01</leafValues></_>
        <_>
          <internalNodes>
            0 -1 302 -3.2854443998076022e-04</internalNodes>
          <leafValues>
            -6.6546595096588135e-01 1.0612241923809052e-01</leafValues></_>
        <_>
          <internalNodes>
            0 -1 321 -4.3133358121849597e-04</internalNodes>
          <leafValues>
            -7.4958884716033936e-01 9.1923803091049194e-02</leafValues></_>
        <_>
          <internalNodes>
            0 -1 81 2.8108526748837903e-05</internalNodes>
          <leafValues>
            1.7409211397171021e-01 -3.8961818814277649e-01</leafValues></_>
        <_>
          <internalNodes>
            0 -1 40 1.3530705473385751e-05</internalNodes>
          <leafValues>
            2.1826142072677612e-01 -3.4921506047248840e-01</leafValues></_>
        <_>
          <internalNodes>
            0 -1 207 -6.4016352407634258e-03</internalNodes>
          <leafValues>
            8.2159322500228882e-01 -9.9666416645050049e-02</leafValues></_>
        <_>
          <internalNodes>
            0 -1 296 -4.8497524403501302e-05</internalNodes>
          <leafValues>
            -6.9355320930480957e-01 1.6161619126796722e-01</leafValues></_>
        <_>
          <internalNodes>
            0 -1 312 1.0218780516879633e-05</internalNodes>
          <leafValues>
            -2.8946807980537415e-01 2.6011717319488525e-01</leafValues></_>
        <_>
          <internalNodes>
            0 -1 121 -1.5171736595220864e-04</internalNodes>
          <leafValues>
            -7.3886108398437500e-01 1.0189979523420334e-01</leafValues></_>
        <_>
          <internalNodes>
            0 -1 187 -3.1916317529976368e-03</internalNodes>
          <leafValues>
            3.9562979340553284e-01 -2.0350816845893860e-01</leafValues></_>
        <_>
          <internalNodes>
            0 -1 222 -2.2602445096708834e-04</internalNodes>
          <leafValues>
            3.3420747518539429e-01 -2.6148751378059387e-01</leafValues></_>
        <_>
          <internalNodes>
            0 -1 199 5.4969012737274170e-02</internalNodes>
          <leafValues>
            -1.6375462710857391e-01 5.8804923295974731e-01</leafValues></_>
        <_>
          <internalNodes>
            0 -1 342 3.5887592821381986e-04</internalNodes>
          <leafValues>
            2.0489348471164703e-01 -4.0728935599327087e-01</leafValues></_>
        <_>
          <internalNodes>
            0 -1 257 -4.0756650269031525e-03</internalNodes>
          <leafValues>
            -4.5528799295425415e-01 1.7575649917125702e-01</leafValues></_>
        <_>
          <internalNodes>
            0 -1 298 6.9025860284455121e-05</internalNodes>
          <leafValues>
            1.3742932677268982e-01 -5.0677675008773804e-01</leafValues></_>
        <_>
          <internalNodes>
            0 -1 145 1.9923369400203228e-03</internalNodes>
          <leafValues>
            -2.0855735242366791e-01 3.7603515386581421e-01</leafValues></_>
        <_>
          <internalNodes>
            0 -1 102 2.0330730825662613e-02</internalNodes>
          <leafValues>
            -1.3884320855140686e-01 6.2379872798919678e-01</leafValues></_></weakClassifiers></_>
    <!-- stage 6 -->
    <_>
      <maxWeakCount>23</maxWeakCount>
      <stageThreshold>-7.1491378545761108e-01</stageThreshold>
      <weakClassifiers>
        <_>
          <internalNodes>
            0 -1 8 -1.5416853129863739e-02</internalNodes>
          <leafValues>
            6.2962961196899414e-01 -5.1607960462570190e-01</leafValues></_>
        <_>
          <internalNodes>
            0 -1 115 -1.9661095738410950e-01</internalNodes>
          <leafValues>
            2.3126173764467239e-02 -8.3759897947311401e-01</leafValues></_>
        <_>
          <internalNodes>
            0 -1 140 1.3334457762539387e-03</internalNodes>
          <leafValues>
            1.2753823399543762e-01 -7.1354866027832031e-01</leafValues></_>
        <_>
          <internalNodes>
            0 -1 301 4.7943122684955597e-02</internalNodes>
          <leafValues>
            -1.1000531911849976e-01 6.2348115444183350e-01</leafValues></_>
        <_>
          <internalNodes>
            0 -1 360 -2.0768586546182632e-03</internalNodes>
          <leafValues>
            -5.8822309970855713e-01 1.2434479594230652e-01</leafValues></_>
        <_>
          <internalNodes>
            0 -1 178 -4.7160888789221644e-04</internalNodes>
          <leafValues>
            2.4819873273372650e-01 -2.6214602589607239e-01</leafValues></_>
        <_>
          <internalNodes>
            0 -1 49 8.2482304424047470e-03</internalNodes>
          <leafValues>
            -1.3178600370883942e-01 5.0068342685699463e-01</leafValues></_>
        <_>
          <internalNodes>
            0 -1 28 1.2080103260814212e-05</internalNodes>
          <leafValues>
            1.4685428142547607e-01 -4.6240872144699097e-01</leafValues></_>
        <_>
          <internalNodes>
            0 -1 180 2.6870032888837159e-04</internalNodes>
          <leafValues>
            -1.6892418265342712e-01 4.0376970171928406e-01</leafValues></_>
        <_>
          <internalNodes>
            0 -1 354 1.2813994544558227e-04</internalNodes>
          <leafValues>
            7.8039698302745819e-02 -9.0735000371932983e-01</leafValues></_>
        <_>
          <internalNodes>
            0 -1 204 -2.6985129807144403e-04</internalNodes>
          <leafValues>
            2.5039708614349365e-01 -2.6547107100486755e-01</leafValues></_>
        <_>
          <internalNodes>
            0 -1 43 6.0112408391432837e-05</internalNodes>
          <leafValues>
            1.2144424021244049e-01 -5.5655813217163086e-01</leafValues></_>
        <_>
          <internalNodes>
            0 -1 253 -2.0768148824572563e-03</internalNodes>
          <leafValues>
            2.9035341739654541e-01 -2.3929177224636078e-01</leafValues></_>
        <_>
          <internalNodes>
            0 -1 280 2.2327214479446411e-02</internalNodes>
          <leafValues>
            -1.4614215493202209e-01 4.9826467037200928e-01</leafValues></_>
        <_>
          <internalNodes>
            0 -1 14 -6.2653798522660509e-06</internalNodes>
          <leafValues>
            -2.5089785456657410e-01 2.4718056619167328e-01</leafValues></_>
        <_>
          <internalNodes>
            0 -1 205 -7.0020707789808512e-04</internalNodes>
          <leafValues>
            -5.0635719299316406e-01 1.3160733878612518e-01</leafValues></_>
        <_>
          <internalNodes>
            0 -1 269 3.5724502056837082e-02</internalNodes>
          <leafValues>
            -1.1686458438634872e-01 6.0701429843902588e-01</leafValues></_>
        <_>
          <internalNodes>
            0 -1 161 -7.4641618994064629e-05</internalNodes>
          <leafValues>
            2.7562612295150757e-01 -2.3902690410614014e-01</leafValues></_>
        <_>
          <internalNodes>
            0 -1 153 -1.4230305096134543e-03</internalNodes>
          <leafValues>
            5.1173776388168335e-01 -1.2915073335170746e-01</leafValues></_>
        <_>
          <internalNodes>
            0 -1 309 -8.8339431385975331e-05</internalNodes>
          <leafValues>
            -5.1446980237960815e-01 1.4276088774204254e-01</leafValues></_>
        <_>
          <internalNodes>
            0 -1 289 -1.3456172018777579e-04</internalNodes>
          <leafValues>
            2.6929053664207458e-01 -2.6000061631202698e-01</leafValues></_>
        <_>
          <internalNodes>
            0 -1 242 3.6448985338211060e-04</internalNodes>
          <leafValues>
            1.8874299526214600e-01 -3.5344898700714111e-01</leafValues></_>
        <_>
          <internalNodes>
            0 -1 246 -2.7831241488456726e-02</internalNodes>
          <leafValues>
            1.5008759498596191e-01 -4.9653574824333191e-01</leafValues></_></weakClassifiers></_>
    <!-- stage 7 -->
    <_>
      <maxWeakCount>24</maxWeakCount>
      <stageThreshold>-7.1407729387283325e-01</stageThreshold>
      <weakClassifiers>
        <_>
          <internalNodes>
            0 -1 186 -5.2193170413374901e-03</internalNodes>
          <leafValues>
            -5.1607960462570190e-01 6.2962961196899414e-01</leafValues></_>
        <_>
          <internalNodes>
            0 -1 238 7.4221843533450738e-06</internalNodes>
          <leafValues>
            -3.1538978219032288e-01 2.3959138989448547e-01</leafValues></_>
        <_>
          <internalNodes>
            0 -1 228 2.2967144104768522e-05</internalNodes>
          <leafValues>
            -1.8484538793563843e-01 3.7049368023872375e-01</leafValues></_>
        <_>
          <internalNodes>
            0 -1 271 4.2855797801166773e-04</internalNodes>
          <leafValues>
            -1.4341621100902557e-01 3.9858984947204590e-01</leafValues></_>
        <_>
          <internalNodes>
            0 -1 103 -1.0751947760581970e-02</internalNodes>
          <leafValues>
            6.7225676774978638e-01 -8.8949166238307953e-02</leafValues></_>
        <_>
          <internalNodes>
            0 -1 50 -1.0386943817138672e-01</internalNodes>
          <leafValues>
            -8.1658899784088135e-01 9.1083504259586334e-02</leafValues></_>
        <_>
          <internalNodes>
            0 -1 170 -6.9222511956468225e-04</internalNodes>
          <leafValues>
            3.4602501988410950e-01 -1.8252831697463989e-01</leafValues></_>
        <_>
          <internalNodes>
            0 -1 123 -1.6091216355562210e-02</internalNodes>
          <leafValues>
            5.3753638267517090e-01 -1.1414498090744019e-01</leafValues></_>
        <_>
          <internalNodes>
            0 -1 230 1.7180853319587186e-05</internalNodes>
          <leafValues>
            -1.8941184878349304e-01 3.5264390707015991e-01</leafValues></_>
        <_>
          <internalNodes>
            0 -1 160 -5.9563175454968587e-05</internalNodes>
          <leafValues>
            3.9008730649948120e-01 -1.7018263041973114e-01</leafValues></_>
        <_>
          <internalNodes>
            0 -1 201 -5.2700750529766083e-05</internalNodes>
          <leafValues>
            -3.2460477948188782e-01 2.3978088796138763e-01</leafValues></_>
        <_>
          <internalNodes>
            0 -1 29 6.3955849036574364e-03</internalNodes>
          <leafValues>
            7.1491658687591553e-02 -8.2659673690795898e-01</leafValues></_>
        <_>
          <internalNodes>
            0 -1 192 -1.0626236326061189e-04</internalNodes>
          <leafValues>
            -6.6123276948928833e-01 8.6844138801097870e-02</leafValues></_>
        <_>
          <internalNodes>
            0 -1 216 1.1023505066987127e-05</internalNodes>
          <leafValues>
            -2.5456973910331726e-01 3.0694928765296936e-01</leafValues></_>
        <_>
          <internalNodes>
            0 -1 157 -3.7790767382830381e-03</internalNodes>
          <leafValues>
            6.9314783811569214e-01 -9.9214874207973480e-02</leafValues></_>
        <_>
          <internalNodes>
            0 -1 5 -3.3418389502912760e-03</internalNodes>
          <leafValues>
            -7.2167605161666870e-01 1.0801048576831818e-01</leafValues></_>
        <_>
          <internalNodes>
            0 -1 294 -6.2368021644942928e-06</internalNodes>
          <leafValues>
            2.7498173713684082e-01 -2.4273225665092468e-01</leafValues></_>
        <_>
          <internalNodes>
            0 -1 3 6.7997989244759083e-03</internalNodes>
          <leafValues>
            1.0770645737648010e-01 -6.9707971811294556e-01</leafValues></_>
        <_>
          <internalNodes>
            0 -1 39 -4.0096434531733394e-05</internalNodes>
          <leafValues>
            -4.9564006924629211e-01 1.4091180264949799e-01</leafValues></_>
        <_>
          <internalNodes>
            0 -1 196 -6.9496091455221176e-03</internalNodes>
          <leafValues>
            4.0987172722816467e-01 -1.7276561260223389e-01</leafValues></_>
        <_>
          <internalNodes>
            0 -1 188 -3.4890163078671321e-05</internalNodes>
          <leafValues>
            3.0359512567520142e-01 -2.3045524954795837e-01</leafValues></_>
        <_>
          <internalNodes>
            0 -1 268 -1.7344307852908969e-03</internalNodes>
          <leafValues>
            6.6306281089782715e-01 -1.1729890108108521e-01</leafValues></_>
        <_>
          <internalNodes>
            0 -1 281 8.1210100324824452e-04</internalNodes>
          <leafValues>
            -2.9232233762741089e-01 2.8929799795150757e-01</leafValues></_>
        <_>
          <internalNodes>
            0 -1 122 -1.0831819963641465e-05</internalNodes>
          <leafValues>
            2.4729041755199432e-01 -2.9358431696891785e-01</leafValues></_></weakClassifiers></_>
    <!-- stage 8 -->
    <_>
      <maxWeakCount>27</maxWeakCount>
      <stageThreshold>-8.7571400403976440e-01</stageThreshold>
      <weakClassifiers>
        <_>
          <internalNodes>
            0 -1 12 -9.4313621520996094e-03</internalNodes>
          <leafValues>
            6.4705884456634521e-01 -5.2941179275512695e-01</leafValues></_>
        <_>
          <internalNodes>
            0 -1 183 -2.1476522088050842e-02</internalNodes>
          <leafValues>
            -4.8803895711898804e-01 7.3885239660739899e-02</leafValues></_>
        <_>
          <internalNodes>
            0 -1 88 7.9473305959254503e-05</internalNodes>
          <leafValues>
            1.4922794699668884e-01 -4.0102103352546692e-01</leafValues></_>
        <_>
          <internalNodes>
            0 -1 132 -1.1791156604886055e-02</internalNodes>
          <leafValues>
            6.2991487979888916e-01 -7.8653126955032349e-02</leafValues></_>
        <_>
          <internalNodes>
            0 -1 202 1.0995203629136086e-02</internalNodes>
          <leafValues>
            9.4637773931026459e-02 -7.3427349328994751e-01</leafValues></_>
        <_>
          <internalNodes>
            0 -1 237 -9.7013253252953291e-05</internalNodes>
          <leafValues>
            -3.2135525345802307e-01 2.1493770182132721e-01</leafValues></_>
        <_>
          <internalNodes>
            0 -1 129 1.0808812826871872e-01</internalNodes>
          <leafValues>
            -8.5969574749469757e-02 9.2779272794723511e-01</leafValues></_>
        <_>
          <internalNodes>
            0 -1 150 -1.1290419846773148e-02</internalNodes>
          <leafValues>
            2.5582605600357056e-01 -2.6450556516647339e-01</leafValues></_>
        <_>
          <internalNodes>
            0 -1 124 -1.4830055832862854e-01</internalNodes>
          <leafValues>
            5.1769161224365234e-01 -1.0879774391651154e-01</leafValues></_>
        <_>
          <internalNodes>
            0 -1 261 -8.0511490523349494e-06</internalNodes>
          <leafValues>
            2.9966181516647339e-01 -2.4313518404960632e-01</leafValues></_>
        <_>
          <internalNodes>
            0 -1 259 -2.7697165496647358e-03</internalNodes>
          <leafValues>
            3.7518805265426636e-01 -1.7000780999660492e-01</leafValues></_>
        <_>
          <internalNodes>
            0 -1 89 -1.4613493476645090e-05</internalNodes>
          <leafValues>
            -4.0958079695701599e-01 1.6728378832340240e-01</leafValues></_>
        <_>
          <internalNodes>
            0 -1 100 -1.8144743517041206e-02</internalNodes>
          <leafValues>
            5.3347307443618774e-01 -1.4342302083969116e-01</leafValues></_>
        <_>
          <internalNodes>
            0 -1 211 -3.2295676646754146e-04</internalNodes>
          <leafValues>
            -4.9496755003929138e-01 1.3300846517086029e-01</leafValues></_>
        <_>
          <internalNodes>
            0 -1 299 1.2142517334723379e-05</internalNodes>
          <leafValues>
            1.5989089012145996e-01 -3.7708318233489990e-01</leafValues></_>
        <_>
          <internalNodes>
            0 -1 270 7.8822034993208945e-05</internalNodes>
          <leafValues>
            -1.9170881807804108e-01 3.8476949930191040e-01</leafValues></_>
        <_>
          <internalNodes>
            0 -1 114 3.2110582105815411e-04</internalNodes>
          <leafValues>
            -1.0867296904325485e-01 6.1988371610641479e-01</leafValues></_>
        <_>
          <internalNodes>
            0 -1 358 2.3673176765441895e-03</internalNodes>
          <leafValues>
            7.3486141860485077e-02 -9.6176481246948242e-01</leafValues></_>
        <_>
          <internalNodes>
            0 -1 324 -2.2174363039084710e-05</internalNodes>
          <leafValues>
            -3.1871929764747620e-01 2.2249481081962585e-01</leafValues></_>
        <_>
          <internalNodes>
            0 -1 290 -6.8084425292909145e-03</internalNodes>
          <leafValues>
            8.7922936677932739e-01 -8.4643512964248657e-02</leafValues></_>
        <_>
          <internalNodes>
            0 -1 225 -2.9411344439722598e-04</internalNodes>
          <leafValues>
            -5.3701853752136230e-01 1.5854696929454803e-01</leafValues></_>
        <_>
          <internalNodes>
            0 -1 344 -6.3900765780999791e-06</internalNodes>
          <leafValues>
            2.3554207384586334e-01 -2.7163824439048767e-01</leafValues></_>
        <_>
          <internalNodes>
            0 -1 60 1.2421400751918554e-03</internalNodes>
          <leafValues>
            -1.1984813213348389e-01 5.0709331035614014e-01</leafValues></_>
        <_>
          <internalNodes>
            0 -1 52 -5.7359784841537476e-04</internalNodes>
          <leafValues>
            8.5634183883666992e-01 -7.1303501725196838e-02</leafValues></_>
        <_>
          <internalNodes>
            0 -1 323 -1.0065000969916582e-04</internalNodes>
          <leafValues>
            -3.8549539446830750e-01 1.8028046190738678e-01</leafValues></_>
        <_>
          <internalNodes>
            0 -1 304 1.6219544704654254e-05</internalNodes>
          <leafValues>
            -2.1033784747123718e-01 2.9475986957550049e-01</leafValues></_>
        <_>
          <internalNodes>
            0 -1 106 -1.8324786651646718e-05</internalNodes>
          <leafValues>
            -2.9240131378173828e-01 2.1482139825820923e-01</leafValues></_></weakClassifiers></_>
    <!-- stage 9 -->
    <_>
      <maxWeakCount>27</maxWeakCount>
      <stageThreshold>-8.4876364469528198e-01</stageThreshold>
      <weakClassifiers>
        <_>
          <internalNodes>
            0 -1 10 1.5267953276634216e-01</internalNodes>
          <leafValues>
            -5.1145040988922119e-01 6.0000002384185791e-01</leafValues></_>
        <_>
          <internalNodes>
            0 -1 351 -1.4577112160623074e-03</internalNodes>
          <leafValues>
            -9.1675394773483276e-01 -4.4307573698461056e-03</leafValues></_>
        <_>
          <internalNodes>
            0 -1 203 4.8154974356293678e-03</internalNodes>
          <leafValues>
            8.1580296158790588e-02 -8.9990186691284180e-01</leafValues></_>
        <_>
          <internalNodes>
            0 -1 260 -7.4862742621917278e-05</internalNodes>
          <leafValues>
            2.6901644468307495e-01 -1.9057454168796539e-01</leafValues></_>
        <_>
          <internalNodes>
            0 -1 179 1.1800110951298848e-04</internalNodes>
          <leafValues>
            5.8130964636802673e-02 -7.0354163646697998e-01</leafValues></_>
        <_>
          <internalNodes>
            0 -1 314 1.0823558841366321e-04</internalNodes>
          <leafValues>
            -1.0548965632915497e-01 4.9602037668228149e-01</leafValues></_>
        <_>
          <internalNodes>
            0 -1 255 -1.5175748558249325e-04</internalNodes>
          <leafValues>
            2.5895711779594421e-01 -2.2999796271324158e-01</leafValues></_>
        <_>
          <internalNodes>
            0 -1 125 -2.2920907940715551e-03</internalNodes>
          <leafValues>
            3.9695474505424500e-01 -1.5132173895835876e-01</leafValues></_>
        <_>
          <internalNodes>
            0 -1 11 -1.2341783076408319e-05</internalNodes>
          <leafValues>
            -3.9135780930519104e-01 1.4470404386520386e-01</leafValues></_>
        <_>
          <internalNodes>
            0 -1 221 -5.7712214766070247e-04</internalNodes>
          <leafValues>
            -6.9723355770111084e-01 7.7352285385131836e-02</leafValues></_>
        <_>
          <internalNodes>
            0 -1 236 -6.4419384580105543e-04</internalNodes>
          <leafValues>
            3.6334127187728882e-01 -1.8629054725170135e-01</leafValues></_>
        <_>
          <internalNodes>
            0 -1 286 -2.9567341698566452e-05</internalNodes>
          <leafValues>
            -3.0979788303375244e-01 1.9534021615982056e-01</leafValues></_>
        <_>
          <internalNodes>
            0 -1 223 5.0427679525455460e-05</internalNodes>
          <leafValues>
            -1.5978935360908508e-01 3.8797262310981750e-01</leafValues></_>
        <_>
          <internalNodes>
            0 -1 156 5.8467911003390327e-05</internalNodes>
          <leafValues>
            -1.8086594343185425e-01 3.1003865599632263e-01</leafValues></_>
        <_>
          <internalNodes>
            0 -1 335 -2.6215588150080293e-05</internalNodes>
          <leafValues>
            -3.2439544796943665e-01 1.9189757108688354e-01</leafValues></_>
        <_>
          <internalNodes>
            0 -1 87 2.8130514547228813e-03</internalNodes>
          <leafValues>
            -1.5913984179496765e-01 4.2057529091835022e-01</leafValues></_>
        <_>
          <internalNodes>
            0 -1 227 -6.5466031432151794e-02</internalNodes>
          <leafValues>
            3.0129256844520569e-01 -2.2395694255828857e-01</leafValues></_>
        <_>
          <internalNodes>
            0 -1 331 -6.5113557502627373e-03</internalNodes>
          <leafValues>
            -3.3132067322731018e-01 2.5513935089111328e-01</leafValues></_>
        <_>
          <internalNodes>
            0 -1 181 -2.2302610799670219e-02</internalNodes>
          <leafValues>
            3.1217882037162781e-01 -2.2430975735187531e-01</leafValues></_>
        <_>
          <internalNodes>
            0 -1 264 -4.4840335613116622e-04</internalNodes>
          <leafValues>
            -3.7998694181442261e-01 1.8002597987651825e-01</leafValues></_>
        <_>
          <internalNodes>
            0 -1 232 1.1555067612789571e-04</internalNodes>
          <leafValues>
            9.6553653478622437e-02 -6.6297513246536255e-01</leafValues></_>
        <_>
          <internalNodes>
            0 -1 328 -5.7962246501119807e-05</internalNodes>
          <leafValues>
            -3.9781615138053894e-01 1.4091426134109497e-01</leafValues></_>
        <_>
          <internalNodes>
            0 -1 173 1.9789265934377909e-05</internalNodes>
          <leafValues>
            -2.0958898961544037e-01 2.9784640669822693e-01</leafValues></_>
        <_>
          <internalNodes>
            0 -1 311 5.4046688601374626e-03</internalNodes>
          <leafValues>
            -1.1909156292676926e-01 5.5805158615112305e-01</leafValues></_>
        <_>
          <internalNodes>
            0 -1 90 -2.4438236141577363e-04</internalNodes>
          <leafValues>
            -8.1207472085952759e-01 9.2435181140899658e-02</leafValues></_>
        <_>
          <internalNodes>
            0 -1 44 -4.6788305044174194e-03</internalNodes>
          <leafValues>
            6.5474754571914673e-01 -1.1757933348417282e-01</leafValues></_>
        <_>
          <internalNodes>
            0 -1 67 -1.6631504986435175e-03</internalNodes>
          <leafValues>
            5.4877007007598877e-01 -1.1266749352216721e-01</leafValues></_></weakClassifiers></_>
    <!-- stage 10 -->
    <_>
      <maxWeakCount>28</maxWeakCount>
      <stageThreshold>-8.6583167314529419e-01</stageThreshold>
      <weakClassifiers>
        <_>
          <internalNodes>
            0 -1 76 1.1819895356893539e-02</internalNodes>
          <leafValues>
            -5.1543211936950684e-01 4.3750000000000000e-01</leafValues></_>
        <_>
          <internalNodes>
            0 -1 224 1.2571799743454903e-05</internalNodes>
          <leafValues>
            1.4841488003730774e-01 -3.0254438519477844e-01</leafValues></_>
        <_>
          <internalNodes>
            0 -1 74 -6.0497171944007277e-05</internalNodes>
          <leafValues>
            2.1972073614597321e-01 -2.2437636554241180e-01</leafValues></_>
        <_>
          <internalNodes>
            0 -1 137 7.5856619514524937e-04</internalNodes>
          <leafValues>
            7.4898213148117065e-02 -6.6559880971908569e-01</leafValues></_>
        <_>
          <internalNodes>
            0 -1 272 3.9004842983558774e-04</internalNodes>
          <leafValues>
            -9.0066149830818176e-02 5.2965348958969116e-01</leafValues></_>
        <_>
          <internalNodes>
            0 -1 244 4.8983034503180534e-05</internalNodes>
          <leafValues>
            1.5234617888927460e-01 -3.6563459038734436e-01</leafValues></_>
        <_>
          <internalNodes>
            0 -1 320 -3.0167722143232822e-03</internalNodes>
          <leafValues>
            3.8740783929824829e-01 -1.4571088552474976e-01</leafValues></_>
        <_>
          <internalNodes>
            0 -1 190 1.0597632353892550e-04</internalNodes>
          <leafValues>
            1.0287547111511230e-01 -5.1684510707855225e-01</leafValues></_>
        <_>
          <internalNodes>
            0 -1 355 2.3015122860670090e-04</internalNodes>
          <leafValues>
            1.0655747354030609e-01 -5.8885598182678223e-01</leafValues></_>
        <_>
          <internalNodes>
            0 -1 210 -1.9438828167039901e-04</internalNodes>
          <leafValues>
            3.5300770401954651e-01 -1.8897615373134613e-01</leafValues></_>
        <_>
          <internalNodes>
            0 -1 218 -3.0730636790394783e-03</internalNodes>
          <leafValues>
            -6.6430246829986572e-01 1.0079216212034225e-01</leafValues></_>
        <_>
          <internalNodes>
            0 -1 267 2.5192211978719570e-05</internalNodes>
          <leafValues>
            1.4531442523002625e-01 -3.8038209080696106e-01</leafValues></_>
        <_>
          <internalNodes>
            0 -1 41 -5.4619769798591733e-04</internalNodes>
          <leafValues>
            5.2793121337890625e-01 -1.2484326213598251e-01</leafValues></_>
        <_>
          <internalNodes>
            0 -1 130 5.8310570238973014e-06</internalNodes>
          <leafValues>
            -2.2704711556434631e-01 3.0569964647293091e-01</leafValues></_>
        <_>
          <internalNodes>
            0 -1 141 2.2070802515372634e-05</internalNodes>
          <leafValues>
            -2.4062103033065796e-01 2.7653390169143677e-01</leafValues></_>
        <_>
          <internalNodes>
            0 -1 27 1.3875932199880481e-04</internalNodes>
          <leafValues>
            1.1959332972764969e-01 -5.7198697328567505e-01</leafValues></_>
        <_>
          <internalNodes>
            0 -1 147 -1.9326468463987112e-03</internalNodes>
          <leafValues>
            7.0738917589187622e-01 -1.0344850271940231e-01</leafValues></_>
        <_>
          <internalNodes>
            0 -1 275 -8.1429616329842247e-06</internalNodes>
          <leafValues>
            2.5905156135559082e-01 -2.7805685997009277e-01</leafValues></_>
        <_>
          <internalNodes>
            0 -1 83 9.4725282906438224e-06</internalNodes>
          <leafValues>
            -2.2093498706817627e-01 3.1281939148902893e-01</leafValues></_>
        <_>
          <internalNodes>
            0 -1 134 3.7337415851652622e-03</internalNodes>
          <leafValues>
            -1.7540796101093292e-01 3.9934045076370239e-01</leafValues></_>
        <_>
          <internalNodes>
            0 -1 209 1.7008667346090078e-03</internalNodes>
          <leafValues>
            9.3536756932735443e-02 -6.8617510795593262e-01</leafValues></_>
        <_>
          <internalNodes>
            0 -1 235 -1.6073886945378035e-04</internalNodes>
          <leafValues>
            6.2252092361450195e-01 -1.3258805871009827e-01</leafValues></_>
        <_>
          <internalNodes>
            0 -1 330 1.7335178563371301e-04</internalNodes>
          <leafValues>
            1.2083224207162857e-01 -6.2057304382324219e-01</leafValues></_>
        <_>
          <internalNodes>
            0 -1 345 9.9438079632818699e-04</internalNodes>
          <leafValues>
            -1.1370468884706497e-01 7.5376856327056885e-01</leafValues></_>
        <_>
          <internalNodes>
            0 -1 127 2.2531235590577126e-03</internalNodes>
          <leafValues>
            -1.4495415985584259e-01 4.6257305145263672e-01</leafValues></_>
        <_>
          <internalNodes>
            0 -1 266 -2.6394798169349087e-06</internalNodes>
          <leafValues>
            3.0169463157653809e-01 -2.4456019699573517e-01</leafValues></_>
        <_>
          <internalNodes>
            0 -1 307 -4.5961191062815487e-05</internalNodes>
          <leafValues>
            2.6983126997947693e-01 -2.8196179866790771e-01</leafValues></_>
        <_>
          <internalNodes>
            0 -1 68 -9.8397023975849152e-03</internalNodes>
          <leafValues>
            3.0284404754638672e-01 -2.7460807561874390e-01</leafValues></_></weakClassifiers></_>
    <!-- stage 11 -->
    <_>
      <maxWeakCount>27</maxWeakCount>
      <stageThreshold>-7.3497599363327026e-01</stageThreshold>
      <weakClassifiers>
        <_>
          <internalNodes>
            0 -1 165 4.7828175127506256e-02</internalNodes>
          <leafValues>
            -4.9700599908828735e-01 1.</leafValues></_>
        <_>
          <internalNodes>
            0 -1 131 7.9891923815011978e-04</internalNodes>
          <leafValues>
            2.8530713170766830e-02 -7.2289550304412842e-01</leafValues></_>
        <_>
          <internalNodes>
            0 -1 53 1.4799803029745817e-03</internalNodes>
          <leafValues>
            8.9711993932723999e-02 -8.9486831426620483e-01</leafValues></_>
        <_>
          <internalNodes>
            0 -1 171 1.2992827396374196e-04</internalNodes>
          <leafValues>
            8.5962742567062378e-02 -4.7072240710258484e-01</leafValues></_>
        <_>
          <internalNodes>
            0 -1 191 -3.2915751216933131e-04</internalNodes>
          <leafValues>
            3.6146190762519836e-01 -1.6198696196079254e-01</leafValues></_>
        <_>
          <internalNodes>
            0 -1 251 3.1660571694374084e-02</internalNodes>
          <leafValues>
            -7.0357568562030792e-02 6.7421877384185791e-01</leafValues></_>
        <_>
          <internalNodes>
            0 -1 231 1.1982471682131290e-02</internalNodes>
          <leafValues>
            -1.2064082175493240e-01 4.5655688643455505e-01</leafValues></_>
        <_>
          <internalNodes>
            0 -1 195 9.2295720241963863e-04</internalNodes>
          <leafValues>
            -2.2262361645698547e-01 2.8660672903060913e-01</leafValues></_>
        <_>
          <internalNodes>
            0 -1 97 2.0154401659965515e-02</internalNodes>
          <leafValues>
            -1.4029836654663086e-01 4.0251138806343079e-01</leafValues></_>
        <_>
          <internalNodes>
            0 -1 346 -2.3287907242774963e-03</internalNodes>
          <leafValues>
            5.4224610328674316e-01 -1.2238980084657669e-01</leafValues></_>
        <_>
          <internalNodes>
            0 -1 353 -3.5067780117969960e-05</internalNodes>
          <leafValues>
            -6.0096794366836548e-01 9.7200825810432434e-02</leafValues></_>
        <_>
          <internalNodes>
            0 -1 64 1.3369797961786389e-03</internalNodes>
          <leafValues>
            -9.0829700231552124e-02 7.1643584966659546e-01</leafValues></_>
        <_>
          <internalNodes>
            0 -1 315 1.6626536380499601e-03</internalNodes>
          <leafValues>
            -1.1257570981979370e-01 5.5518889427185059e-01</leafValues></_>
        <_>
          <internalNodes>
            0 -1 19 5.0778109580278397e-03</internalNodes>
          <leafValues>
            9.5953084528446198e-02 -7.8425836563110352e-01</leafValues></_>
        <_>
          <internalNodes>
            0 -1 79 -2.3295613937079906e-03</internalNodes>
          <leafValues>
            5.0835102796554565e-01 -1.5100851655006409e-01</leafValues></_>
        <_>
          <internalNodes>
            0 -1 313 -5.6080833077430725e-02</internalNodes>
          <leafValues>
            8.2139265537261963e-01 -7.3531128466129303e-02</leafValues></_>
        <_>
          <internalNodes>
            0 -1 73 -1.1088004612247460e-05</internalNodes>
          <leafValues>
            -2.6542598009109497e-01 2.3259681463241577e-01</leafValues></_>
        <_>
          <internalNodes>
            0 -1 295 6.1231697909533978e-03</internalNodes>
          <leafValues>
            -1.0959043353796005e-01 6.5689420700073242e-01</leafValues></_>
        <_>
          <internalNodes>
            0 -1 48 4.2315647006034851e-03</internalNodes>
          <leafValues>
            1.4080515503883362e-01 -4.9917030334472656e-01</leafValues></_>
        <_>
          <internalNodes>
            0 -1 332 6.5115913748741150e-03</internalNodes>
          <leafValues>
            -8.6636543273925781e-02 7.7637952566146851e-01</leafValues></_>
        <_>
          <internalNodes>
            0 -1 92 -1.7616646073292941e-04</internalNodes>
          <leafValues>
            -2.3704868555068970e-01 2.6470452547073364e-01</leafValues></_>
        <_>
          <internalNodes>
            0 -1 119 -1.2458503246307373e-02</internalNodes>
          <leafValues>
            4.7533449530601501e-01 -1.4152072370052338e-01</leafValues></_>
        <_>
          <internalNodes>
            0 -1 240 1.3164168223738670e-02</internalNodes>
          <leafValues>
            -8.1043556332588196e-02 7.3049688339233398e-01</leafValues></_>
        <_>
          <internalNodes>
            0 -1 176 2.9036719352006912e-02</internalNodes>
          <leafValues>
            -1.4833675324916840e-01 4.1073241829872131e-01</leafValues></_>
        <_>
          <internalNodes>
            0 -1 9 1.3211868936195970e-03</internalNodes>
          <leafValues>
            -1.0602352023124695e-01 6.0757136344909668e-01</leafValues></_>
        <_>
          <internalNodes>
            0 -1 283 9.7987154731526971e-05</internalNodes>
          <leafValues>
            -2.1512049436569214e-01 3.0637955665588379e-01</leafValues></_>
        <_>
          <internalNodes>
            0 -1 63 1.1795142199844122e-03</internalNodes>
          <leafValues>
            -1.9474485516548157e-01 3.2686743140220642e-01</leafValues></_></weakClassifiers></_>
    <!-- stage 12 -->
    <_>
      <maxWeakCount>28</maxWeakCount>
      <stageThreshold>-8.2382589578628540e-01</stageThreshold>
      <weakClassifiers>
        <_>
          <internalNodes>
            0 -1 306 -6.2967054545879364e-03</internalNodes>
          <leafValues>
            1. -4.9925038218498230e-01</leafValues></_>
        <_>
          <internalNodes>
            0 -1 177 -5.8061787858605385e-03</internalNodes>
          <leafValues>
            -7.8035229444503784e-01 3.5598751157522202e-02</leafValues></_>
        <_>
          <internalNodes>
            0 -1 164 2.3379339836537838e-04</internalNodes>
          <leafValues>
            1.1158107221126556e-01 -6.6732579469680786e-01</leafValues></_>
        <_>
          <internalNodes>
            0 -1 15 1.2383237481117249e-04</internalNodes>
          <leafValues>
            1.3560883700847626e-01 -3.6481779813766479e-01</leafValues></_>
        <_>
          <internalNodes>
            0 -1 105 -1.4007706195116043e-03</internalNodes>
          <leafValues>
            -8.9993953704833984e-01 3.1297374516725540e-02</leafValues></_>
        <_>
          <internalNodes>
            0 -1 2 -8.3005214110016823e-03</internalNodes>
          <leafValues>
            -8.0263876914978027e-01 5.6603558361530304e-02</leafValues></_>
        <_>
          <internalNodes>
            0 -1 91 1.3973251916468143e-03</internalNodes>
          <leafValues>
            -1.0076832026243210e-01 5.5287146568298340e-01</leafValues></_>
        <_>
          <internalNodes>
            0 -1 356 8.6360261775553226e-05</internalNodes>
          <leafValues>
            1.1453203856945038e-01 -4.6699434518814087e-01</leafValues></_>
        <_>
          <internalNodes>
            0 -1 303 -8.6337924585677683e-05</internalNodes>
          <leafValues>
            3.2680839300155640e-01 -1.7242489755153656e-01</leafValues></_>
        <_>
          <internalNodes>
            0 -1 278 -1.7694910638965666e-04</internalNodes>
          <leafValues>
            -4.0822336077690125e-01 1.5407620370388031e-01</leafValues></_>
        <_>
          <internalNodes>
            0 -1 340 7.6762940734624863e-03</internalNodes>
          <leafValues>
            -1.0475181043148041e-01 5.5633157491683960e-01</leafValues></_>
        <_>
          <internalNodes>
            0 -1 208 -1.5631369315087795e-03</internalNodes>
          <leafValues>
            -7.7184164524078369e-01 7.7550329267978668e-02</leafValues></_>
        <_>
          <internalNodes>
            0 -1 254 2.6522780535742640e-04</internalNodes>
          <leafValues>
            -1.1116874963045120e-01 6.0710805654525757e-01</leafValues></_>
        <_>
          <internalNodes>
            0 -1 333 5.5452415836043656e-05</internalNodes>
          <leafValues>
            1.5215785801410675e-01 -3.9749938249588013e-01</leafValues></_>
        <_>
          <internalNodes>
            0 -1 25 -1.2014249339699745e-02</internalNodes>
          <leafValues>
            3.4347465634346008e-01 -1.8249368667602539e-01</leafValues></_>
        <_>
          <internalNodes>
            0 -1 96 2.1829770877957344e-02</internalNodes>
          <leafValues>
            -1.5408666431903839e-01 4.1768783330917358e-01</leafValues></_>
        <_>
          <internalNodes>
            0 -1 84 8.7923326645977795e-05</internalNodes>
          <leafValues>
            8.9525163173675537e-02 -6.6446125507354736e-01</leafValues></_>
        <_>
          <internalNodes>
            0 -1 359 -5.0429971888661385e-03</internalNodes>
          <leafValues>
            -6.6105228662490845e-01 8.0856807529926300e-02</leafValues></_>
        <_>
          <internalNodes>
            0 -1 169 2.9117265512468293e-05</internalNodes>
          <leafValues>
            -2.6448595523834229e-01 2.5177219510078430e-01</leafValues></_>
        <_>
          <internalNodes>
            0 -1 98 -1.1969567276537418e-03</internalNodes>
          <leafValues>
            -3.4186136722564697e-01 1.9749699532985687e-01</leafValues></_>
        <_>
          <internalNodes>
            0 -1 248 -5.2351046178955585e-05</internalNodes>
          <leafValues>
            4.2055812478065491e-01 -1.6167122125625610e-01</leafValues></_>
        <_>
          <internalNodes>
            0 -1 322 1.6526428516954184e-03</internalNodes>
          <leafValues>
            -8.8037110865116119e-02 6.5290451049804688e-01</leafValues></_>
        <_>
          <internalNodes>
            0 -1 107 4.6604694798588753e-03</internalNodes>
          <leafValues>
            9.1339968144893646e-02 -7.5656187534332275e-01</leafValues></_>
        <_>
          <internalNodes>
            0 -1 247 -5.8681517839431763e-04</internalNodes>
          <leafValues>
            -5.6087672710418701e-01 9.6567623317241669e-02</leafValues></_>
        <_>
          <internalNodes>
            0 -1 241 -2.5549377314746380e-03</internalNodes>
          <leafValues>
            6.8342745304107666e-01 -1.0626120120286942e-01</leafValues></_>
        <_>
          <internalNodes>
            0 -1 175 4.1627129539847374e-03</internalNodes>
          <leafValues>
            1.2623064219951630e-01 -5.2890413999557495e-01</leafValues></_>
        <_>
          <internalNodes>
            0 -1 57 -3.3328693825751543e-03</internalNodes>
          <leafValues>
            5.4970461130142212e-01 -1.4265552163124084e-01</leafValues></_>
        <_>
          <internalNodes>
            0 -1 233 3.9332575397565961e-04</internalNodes>
          <leafValues>
            -1.2771145999431610e-01 4.7988736629486084e-01</leafValues></_></weakClassifiers></_>
    <!-- stage 13 -->
    <_>
      <maxWeakCount>27</maxWeakCount>
      <stageThreshold>-7.8196597099304199e-01</stageThreshold>
      <weakClassifiers>
        <_>
          <internalNodes>
            0 -1 135 -4.0192149579524994e-02</internalNodes>
          <leafValues>
            6.3636362552642822e-01 -5.0759875774383545e-01</leafValues></_>
        <_>
          <internalNodes>
            0 -1 214 -4.0328741306439042e-04</internalNodes>
          <leafValues>
            -8.5625135898590088e-01 4.9006608314812183e-03</leafValues></_>
        <_>
          <internalNodes>
            0 -1 118 1.3982283417135477e-04</internalNodes>
          <leafValues>
            -1.9773936271667480e-01 3.0140399932861328e-01</leafValues></_>
        <_>
          <internalNodes>
            0 -1 142 2.0086881704628468e-04</internalNodes>
          <leafValues>
            -2.1934829652309418e-01 2.7463397383689880e-01</leafValues></_>
        <_>
          <internalNodes>
            0 -1 285 -4.0477141737937927e-03</internalNodes>
          <leafValues>
            -7.2582399845123291e-01 6.6936440765857697e-02</leafValues></_>
        <_>
          <internalNodes>
            0 -1 337 3.1043585389852524e-02</internalNodes>
          <leafValues>
            8.1086501479148865e-02 -8.0930125713348389e-01</leafValues></_>
        <_>
          <internalNodes>
            0 -1 341 8.8131474331021309e-03</internalNodes>
          <leafValues>
            -1.1102852970361710e-01 6.6972839832305908e-01</leafValues></_>
        <_>
          <internalNodes>
            0 -1 184 1.1218299914617091e-04</internalNodes>
          <leafValues>
            -1.1599659919738770e-01 5.2160829305648804e-01</leafValues></_>
        <_>
          <internalNodes>
            0 -1 34 1.1926217848667875e-04</internalNodes>
          <leafValues>
            8.7990418076515198e-02 -7.2267419099807739e-01</leafValues></_>
        <_>
          <internalNodes>
            0 -1 352 2.7643560315482318e-05</internalNodes>
          <leafValues>
            9.0907506644725800e-02 -5.1849782466888428e-01</leafValues></_>
        <_>
          <internalNodes>
            0 -1 45 -1.2609496479853988e-05</internalNodes>
          <leafValues>
            -3.3110427856445313e-01 1.6461437940597534e-01</leafValues></_>
        <_>
          <internalNodes>
            0 -1 152 -5.1463881391100585e-05</internalNodes>
          <leafValues>
            2.3442478477954865e-01 -2.5487145781517029e-01</leafValues></_>
        <_>
          <internalNodes>
            0 -1 26 2.3948042653501034e-03</internalNodes>
          <leafValues>
            -1.3445326685905457e-01 4.9175068736076355e-01</leafValues></_>
        <_>
          <internalNodes>
            0 -1 117 5.1841391250491142e-03</internalNodes>
          <leafValues>
            1.7442570626735687e-01 -3.5684537887573242e-01</leafValues></_>
        <_>
          <internalNodes>
            0 -1 85 -1.4784504310227931e-04</internalNodes>
          <leafValues>
            4.3091598153114319e-01 -1.6793507337570190e-01</leafValues></_>
        <_>
          <internalNodes>
            0 -1 139 2.5607472285628319e-02</internalNodes>
          <leafValues>
            -2.7547964453697205e-01 2.4379926919937134e-01</leafValues></_>
        <_>
          <internalNodes>
            0 -1 189 -8.8550674263387918e-05</internalNodes>
          <leafValues>
            3.3318793773651123e-01 -1.8783245980739594e-01</leafValues></_>
        <_>
          <internalNodes>
            0 -1 136 1.8067730590701103e-02</internalNodes>
          <leafValues>
            -1.4555747807025909e-01 4.5956963300704956e-01</leafValues></_>
        <_>
          <internalNodes>
            0 -1 327 7.1544165257364511e-04</internalNodes>
          <leafValues>
            1.9096212089061737e-01 -3.2005056738853455e-01</leafValues></_>
        <_>
          <internalNodes>
            0 -1 305 7.3839604738168418e-05</internalNodes>
          <leafValues>
            -2.1639665961265564e-01 2.7926859259605408e-01</leafValues></_>
        <_>
          <internalNodes>
            0 -1 317 7.7641487587243319e-04</internalNodes>
          <leafValues>
            -1.2838369607925415e-01 4.7122535109519958e-01</leafValues></_>
        <_>
          <internalNodes>
            0 -1 220 -3.9357738569378853e-03</internalNodes>
          <leafValues>
            -7.3404419422149658e-01 8.9570246636867523e-02</leafValues></_>
        <_>
          <internalNodes>
            0 -1 17 -7.4185756966471672e-03</internalNodes>
          <leafValues>
            8.6713790893554688e-01 -9.0697914361953735e-02</leafValues></_>
        <_>
          <internalNodes>
            0 -1 75 2.9593036742880940e-05</internalNodes>
          <leafValues>
            1.8278409540653229e-01 -3.9810788631439209e-01</leafValues></_>
        <_>
          <internalNodes>
            0 -1 287 5.1270523108541965e-03</internalNodes>
          <leafValues>
            9.2169411480426788e-02 -7.7738201618194580e-01</leafValues></_>
        <_>
          <internalNodes>
            0 -1 94 3.9702904177829623e-04</internalNodes>
          <leafValues>
            -1.8935202062129974e-01 3.9681354165077209e-01</leafValues></_>
        <_>
          <internalNodes>
            0 -1 55 -3.1080812914296985e-04</internalNodes>
          <leafValues>
            -2.9055088758468628e-01 2.5546279549598694e-01</leafValues></_></weakClassifiers></_>
    <!-- stage 14 -->
    <_>
      <maxWeakCount>30</maxWeakCount>
      <stageThreshold>-7.8484493494033813e-01</stageThreshold>
      <weakClassifiers>
        <_>
          <internalNodes>
            0 -1 46 -1.3323289342224598e-02</internalNodes>
          <leafValues>
            5.1724135875701904e-01 -5.1459294557571411e-01</leafValues></_>
        <_>
          <internalNodes>
            0 -1 252 -1.0433874558657408e-03</internalNodes>
          <leafValues>
            -5.9809935092926025e-01 2.6441527530550957e-02</leafValues></_>
        <_>
          <internalNodes>
            0 -1 282 -4.1148497984977439e-05</internalNodes>
          <leafValues>
            2.7815073728561401e-01 -1.8413215875625610e-01</leafValues></_>
        <_>
          <internalNodes>
            0 -1 316 -1.5752746548969299e-05</internalNodes>
          <leafValues>
            3.0844989418983459e-01 -1.7288570106029510e-01</leafValues></_>
        <_>
          <internalNodes>
            0 -1 116 1.0494660586118698e-02</internalNodes>
          <leafValues>
            -1.0257833451032639e-01 6.4720416069030762e-01</leafValues></_>
        <_>
          <internalNodes>
            0 -1 310 -1.2588620302267373e-04</internalNodes>
          <leafValues>
            -3.2495796680450439e-01 1.6394655406475067e-01</leafValues></_>
        <_>
          <internalNodes>
            0 -1 219 -5.1669012755155563e-03</internalNodes>
          <leafValues>
            -6.5312218666076660e-01 7.9730257391929626e-02</leafValues></_>
        <_>
          <internalNodes>
            0 -1 24 2.4693710729479790e-03</internalNodes>
          <leafValues>
            -9.0800680220127106e-02 6.5888047218322754e-01</leafValues></_>
        <_>
          <internalNodes>
            0 -1 31 -2.9658279381692410e-03</internalNodes>
          <leafValues>
            4.0987482666969299e-01 -1.3834179937839508e-01</leafValues></_>
        <_>
          <internalNodes>
            0 -1 193 1.7912569455802441e-04</internalNodes>
          <leafValues>
            1.8981814384460449e-01 -3.3026716113090515e-01</leafValues></_>
        <_>
          <internalNodes>
            0 -1 274 1.4754198491573334e-03</internalNodes>
          <leafValues>
            -2.4710583686828613e-01 2.3492841422557831e-01</leafValues></_>
        <_>
          <internalNodes>
            0 -1 110 3.0272908043116331e-04</internalNodes>
          <leafValues>
            2.1329155564308167e-01 -2.9455649852752686e-01</leafValues></_>
        <_>
          <internalNodes>
            0 -1 143 2.2757826081942767e-04</internalNodes>
          <leafValues>
            -1.4978206157684326e-01 4.2293664813041687e-01</leafValues></_>
        <_>
          <internalNodes>
            0 -1 334 -8.3015242125838995e-05</internalNodes>
          <leafValues>
            4.0300598740577698e-01 -1.5007834136486053e-01</leafValues></_>
        <_>
          <internalNodes>
            0 -1 56 -3.5820412449538708e-03</internalNodes>
          <leafValues>
            6.1760288476943970e-01 -1.0342188179492950e-01</leafValues></_>
        <_>
          <internalNodes>
            0 -1 70 -2.7367298025637865e-04</internalNodes>
          <leafValues>
            -3.9024806022644043e-01 1.5681053698062897e-01</leafValues></_>
        <_>
          <internalNodes>
            0 -1 292 5.1608833018690348e-04</internalNodes>
          <leafValues>
            -1.5395779907703400e-01 4.9062252044677734e-01</leafValues></_>
        <_>
          <internalNodes>
            0 -1 172 -7.7976274042157456e-06</internalNodes>
          <leafValues>
            -3.3458662033081055e-01 2.0179119706153870e-01</leafValues></_>
        <_>
          <internalNodes>
            0 -1 149 -9.3333013355731964e-03</internalNodes>
          <leafValues>
            9.4331908226013184e-01 -6.6884160041809082e-02</leafValues></_>
        <_>
          <internalNodes>
            0 -1 42 -2.1945648768451065e-05</internalNodes>
          <leafValues>
            -3.9619338512420654e-01 1.6338707506656647e-01</leafValues></_>
        <_>
          <internalNodes>
            0 -1 37 1.8447421025484800e-03</internalNodes>
          <leafValues>
            -1.1295115947723389e-01 5.3542608022689819e-01</leafValues></_>
        <_>
          <internalNodes>
            0 -1 54 4.0443409234285355e-03</internalNodes>
          <leafValues>
            8.5206963121891022e-02 -7.5356960296630859e-01</leafValues></_>
        <_>
          <internalNodes>
            0 -1 58 6.3823739765211940e-05</internalNodes>
          <leafValues>
            2.2252915799617767e-01 -3.2566794753074646e-01</leafValues></_>
        <_>
          <internalNodes>
            0 -1 35 1.0590353049337864e-03</internalNodes>
          <leafValues>
            7.3193952441215515e-02 -8.0363351106643677e-01</leafValues></_>
        <_>
          <internalNodes>
            0 -1 101 -2.0228890934959054e-04</internalNodes>
          <leafValues>
            6.7351871728897095e-01 -1.0557191818952560e-01</leafValues></_>
        <_>
          <internalNodes>
            0 -1 239 1.1907594744116068e-03</internalNodes>
          <leafValues>
            -6.9929078221321106e-02 7.8179830312728882e-01</leafValues></_>
        <_>
          <internalNodes>
            0 -1 197 2.4434179067611694e-03</internalNodes>
          <leafValues>
            1.3483232259750366e-01 -6.0926067829132080e-01</leafValues></_>
        <_>
          <internalNodes>
            0 -1 168 7.7936165034770966e-03</internalNodes>
          <leafValues>
            -1.1543834209442139e-01 6.9576150178909302e-01</leafValues></_>
        <_>
          <internalNodes>
            0 -1 174 1.7531285993754864e-03</internalNodes>
          <leafValues>
            -1.0454785823822021e-01 5.7267546653747559e-01</leafValues></_>
        <_>
          <internalNodes>
            0 -1 162 1.0188713349634781e-04</internalNodes>
          <leafValues>
            1.7309008538722992e-01 -3.8723111152648926e-01</leafValues></_></weakClassifiers></_></stages>
  <features>
    <_>
      <rects>
        <_>
          0 0 3 48 -1.</_>
        <_>
          0 24 3 24 2.</_></rects>
      <tilted>0</tilted></_>
    <_>
      <rects>
        <_>
          0 0 22 14 -1.</_>
        <_>
          0 0 11 7 2.</_>
        <_>
          11 7 11 7 2.</_></rects>
      <tilted>0</tilted></_>
    <_>
      <rects>
        <_>
          0 0 32 1 -1.</_>
        <_>
          16 0 16 1 2.</_></rects>
      <tilted>0</tilted></_>
    <_>
      <rects>
        <_>
          0 0 42 1 -1.</_>
        <_>
          21 0 21 1 2.</_></rects>
      <tilted>0</tilted></_>
    <_>
      <rects>
        <_>
          0 1 2 2 -1.</_>
        <_>
          0 2 2 1 2.</_></rects>
      <tilted>0</tilted></_>
    <_>
      <rects>
        <_>
          0 1 4 8 -1.</_>
        <_>
          0 5 4 4 2.</_></rects>
      <tilted>0</tilted></_>
    <_>
      <rects>
        <_>
          0 2 2 1 -1.</_>
        <_>
          1 2 1 1 2.</_></rects>
      <tilted>0</tilted></_>
    <_>
      <rects>
        <_>
          0 3 40 2 -1.</_>
        <_>
          0 3 20 1 2.</_>
        <_>
          20 4 20 1 2.</_></rects>
      <tilted>0</tilted></_>
    <_>
      <rects>
        <_>
          0 5 14 4 -1.</_>
        <_>
          7 5 7 4 2.</_></rects>
      <tilted>0</tilted></_>
    <_>
      <rects>
        <_>
          0 6 16 2 -1.</_>
        <_>
          0 6 8 1 2.</_>
        <_>
          8 7 8 1 2.</_></rects>
      <tilted>0</tilted></_>
    <_>
      <rects>
        <_>
          0 6 28 28 -1.</_>
        <_>
          14 6 14 28 2.</_></rects>
      <tilted>0</tilted></_>
    <_>
      <rects>
        <_>
          0 8 2 2 -1.</_>
        <_>
          0 8 1 1 2.</_>
        <_>
          1 9 1 1 2.</_></rects>
      <tilted>0</tilted></_>
    <_>
      <rects>
        <_>
          0 8 46 4 -1.</_>
        <_>
          0 8 23 2 2.</_>
        <_>
          23 10 23 2 2.</_></rects>
      <tilted>0</tilted></_>
    <_>
      <rects>
        <_>
          0 10 2 1 -1.</_>
        <_>
          1 10 1 1 2.</_></rects>
      <tilted>0</tilted></_>
    <_>
      <rects>
        <_>
          0 10 4 10 -1.</_>
        <_>
          0 10 2 5 2.</_>
        <_>
          2 15 2 5 2.</_></rects>
      <tilted>0</tilted></_>
    <_>
      <rects>
        <_>
          0 13 2 7 -1.</_>
        <_>
          1 13 1 7 2.</_></rects>
      <tilted>0</tilted></_>
    <_>
      <rects>
        <_>
          0 14 2 2 -1.</_>
        <_>
          0 14 1 1 2.</_>
        <_>
          1 15 1 1 2.</_></rects>
      <tilted>0</tilted></_>
    <_>
      <rects>
        <_>
          0 14 4 26 -1.</_>
        <_>
          0 14 2 13 2.</_>
        <_>
          2 27 2 13 2.</_></rects>
      <tilted>0</tilted></_>
    <_>
      <rects>
        <_>
          0 14 16 19 -1.</_>
        <_>
          8 14 8 19 2.</_></rects>
      <tilted>0</tilted></_>
    <_>
      <rects>
        <_>
          0 16 5 8 -1.</_>
        <_>
          0 20 5 4 2.</_></rects>
      <tilted>0</tilted></_>
    <_>
      <rects>
        <_>
          0 20 10 30 -1.</_>
        <_>
          0 20 5 15 2.</_>
        <_>
          5 35 5 15 2.</_></rects>
      <tilted>0</tilted></_>
    <_>
      <rects>
        <_>
          0 23 1 15 -1.</_>
        <_>
          0 28 1 5 2.</_></rects>
      <tilted>0</tilted></_>
    <_>
      <rects>
        <_>
          0 23 2 9 -1.</_>
        <_>
          0 26 2 3 2.</_></rects>
      <tilted>0</tilted></_>
    <_>
      <rects>
        <_>
          0 23 8 10 -1.</_>
        <_>
          4 23 4 10 2.</_></rects>
      <tilted>0</tilted></_>
    <_>
      <rects>
        <_>
          0 25 8 2 -1.</_>
        <_>
          4 25 4 2 2.</_></rects>
      <tilted>0</tilted></_>
    <_>
      <rects>
        <_>
          0 27 26 12 -1.</_>
        <_>
          0 33 26 6 2.</_></rects>
      <tilted>0</tilted></_>
    <_>
      <rects>
        <_>
          0 29 4 18 -1.</_>
        <_>
          0 29 2 9 2.</_>
        <_>
          2 38 2 9 2.</_></rects>
      <tilted>0</tilted></_>
    <_>
      <rects>
        <_>
          0 48 2 2 -1.</_>
        <_>
          1 48 1 2 2.</_></rects>
      <tilted>0</tilted></_>
    <_>
      <rects>
        <_>
          1 0 2 2 -1.</_>
        <_>
          1 0 1 1 2.</_>
        <_>
          2 1 1 1 2.</_></rects>
      <tilted>0</tilted></_>
    <_>
      <rects>
        <_>
          1 0 2 16 -1.</_>
        <_>
          1 8 2 8 2.</_></rects>
      <tilted>0</tilted></_>
    <_>
      <rects>
        <_>
          1 2 2 2 -1.</_>
        <_>
          1 2 1 1 2.</_>
        <_>
          2 3 1 1 2.</_></rects>
      <tilted>0</tilted></_>
    <_>
      <rects>
        <_>
          1 2 38 1 -1.</_>
        <_>
          20 2 19 1 2.</_></rects>
      <tilted>0</tilted></_>
    <_>
      <rects>
        <_>
          1 5 34 2 -1.</_>
        <_>
          1 5 17 1 2.</_>
        <_>
          18 6 17 1 2.</_></rects>
      <tilted>0</tilted></_>
    <_>
      <rects>
        <_>
          1 6 2 2 -1.</_>
        <_>
          1 6 1 1 2.</_>
        <_>
          2 7 1 1 2.</_></rects>
      <tilted>0</tilted></_>
    <_>
      <rects>
        <_>
          1 6 4 2 -1.</_>
        <_>
          1 6 2 1 2.</_>
        <_>
          3 7 2 1 2.</_></rects>
      <tilted>0</tilted></_>
    <_>
      <rects>
        <_>
          1 13 11 2 -1.</_>
        <_>
          1 14 11 1 2.</_></rects>
      <tilted>0</tilted></_>
    <_>
      <rects>
        <_>
          1 18 2 2 -1.</_>
        <_>
          2 18 1 2 2.</_></rects>
      <tilted>0</tilted></_>
    <_>
      <rects>
        <_>
          1 19 4 7 -1.</_>
        <_>
          3 19 2 7 2.</_></rects>
      <tilted>0</tilted></_>
    <_>
      <rects>
        <_>
          1 22 31 2 -1.</_>
        <_>
          1 23 31 1 2.</_></rects>
      <tilted>0</tilted></_>
    <_>
      <rects>
        <_>
          1 30 2 4 -1.</_>
        <_>
          1 30 1 2 2.</_>
        <_>
          2 32 1 2 2.</_></rects>
      <tilted>0</tilted></_>
    <_>
      <rects>
        <_>
          1 35 2 4 -1.</_>
        <_>
          1 35 1 2 2.</_>
        <_>
          2 37 1 2 2.</_></rects>
      <tilted>0</tilted></_>
    <_>
      <rects>
        <_>
          1 35 10 2 -1.</_>
        <_>
          1 35 5 1 2.</_>
        <_>
          6 36 5 1 2.</_></rects>
      <tilted>0</tilted></_>
    <_>
      <rects>
        <_>
          1 38 2 2 -1.</_>
        <_>
          1 38 1 1 2.</_>
        <_>
          2 39 1 1 2.</_></rects>
      <tilted>0</tilted></_>
    <_>
      <rects>
        <_>
          1 39 1 2 -1.</_>
        <_>
          1 40 1 1 2.</_></rects>
      <tilted>0</tilted></_>
    <_>
      <rects>
        <_>
          1 43 22 4 -1.</_>
        <_>
          1 43 11 2 2.</_>
        <_>
          12 45 11 2 2.</_></rects>
      <tilted>0</tilted></_>
    <_>
      <rects>
        <_>
          2 2 4 2 -1.</_>
        <_>
          2 2 2 1 2.</_>
        <_>
          4 3 2 1 2.</_></rects>
      <tilted>0</tilted></_>
    <_>
      <rects>
        <_>
          2 2 20 6 -1.</_>
        <_>
          2 2 10 3 2.</_>
        <_>
          12 5 10 3 2.</_></rects>
      <tilted>0</tilted></_>
    <_>
      <rects>
        <_>
          2 3 2 2 -1.</_>
        <_>
          2 3 1 1 2.</_>
        <_>
          3 4 1 1 2.</_></rects>
      <tilted>0</tilted></_>
    <_>
      <rects>
        <_>
          2 5 12 10 -1.</_>
        <_>
          2 5 6 5 2.</_>
        <_>
          8 10 6 5 2.</_></rects>
      <tilted>0</tilted></_>
    <_>
      <rects>
        <_>
          2 9 8 22 -1.</_>
        <_>
          2 9 4 11 2.</_>
        <_>
          6 20 4 11 2.</_></rects>
      <tilted>0</tilted></_>
    <_>
      <rects>
        <_>
          2 13 34 22 -1.</_>
        <_>
          2 13 17 11 2.</_>
        <_>
          19 24 17 11 2.</_></rects>
      <tilted>0</tilted></_>
    <_>
      <rects>
        <_>
          2 20 42 4 -1.</_>
        <_>
          2 20 21 2 2.</_>
        <_>
          23 22 21 2 2.</_></rects>
      <tilted>0</tilted></_>
    <_>
      <rects>
        <_>
          2 23 2 2 -1.</_>
        <_>
          3 23 1 2 2.</_></rects>
      <tilted>0</tilted></_>
    <_>
      <rects>
        <_>
          2 25 18 2 -1.</_>
        <_>
          2 25 9 1 2.</_>
        <_>
          11 26 9 1 2.</_></rects>
      <tilted>0</tilted></_>
    <_>
      <rects>
        <_>
          2 27 4 21 -1.</_>
        <_>
          4 27 2 21 2.</_></rects>
      <tilted>0</tilted></_>
    <_>
      <rects>
        <_>
          2 29 6 20 -1.</_>
        <_>
          2 29 3 10 2.</_>
        <_>
          5 39 3 10 2.</_></rects>
      <tilted>0</tilted></_>
    <_>
      <rects>
        <_>
          2 29 16 4 -1.</_>
        <_>
          2 29 8 2 2.</_>
        <_>
          10 31 8 2 2.</_></rects>
      <tilted>0</tilted></_>
    <_>
      <rects>
        <_>
          2 35 22 4 -1.</_>
        <_>
          2 35 11 2 2.</_>
        <_>
          13 37 11 2 2.</_></rects>
      <tilted>0</tilted></_>
    <_>
      <rects>
        <_>
          2 42 4 8 -1.</_>
        <_>
          2 42 2 4 2.</_>
        <_>
          4 46 2 4 2.</_></rects>
      <tilted>0</tilted></_>
    <_>
      <rects>
        <_>
          2 43 2 6 -1.</_>
        <_>
          2 45 2 2 2.</_></rects>
      <tilted>0</tilted></_>
    <_>
      <rects>
        <_>
          2 44 7 4 -1.</_>
        <_>
          2 46 7 2 2.</_></rects>
      <tilted>0</tilted></_>
    <_>
      <rects>
        <_>
          3 0 2 3 -1.</_>
        <_>
          4 0 1 3 2.</_></rects>
      <tilted>0</tilted></_>
    <_>
      <rects>
        <_>
          3 0 4 1 -1.</_>
        <_>
          5 0 2 1 2.</_></rects>
      <tilted>0</tilted></_>
    <_>
      <rects>
        <_>
          3 2 4 26 -1.</_>
        <_>
          3 2 2 13 2.</_>
        <_>
          5 15 2 13 2.</_></rects>
      <tilted>0</tilted></_>
    <_>
      <rects>
        <_>
          3 2 20 2 -1.</_>
        <_>
          3 2 10 1 2.</_>
        <_>
          13 3 10 1 2.</_></rects>
      <tilted>0</tilted></_>
    <_>
      <rects>
        <_>
          3 4 40 2 -1.</_>
        <_>
          3 4 20 1 2.</_>
        <_>
          23 5 20 1 2.</_></rects>
      <tilted>0</tilted></_>
    <_>
      <rects>
        <_>
          3 5 14 24 -1.</_>
        <_>
          3 5 7 12 2.</_>
        <_>
          10 17 7 12 2.</_></rects>
      <tilted>0</tilted></_>
    <_>
      <rects>
        <_>
          3 8 34 2 -1.</_>
        <_>
          3 8 17 1 2.</_>
        <_>
          20 9 17 1 2.</_></rects>
      <tilted>0</tilted></_>
    <_>
      <rects>
        <_>
          3 9 10 36 -1.</_>
        <_>
          8 9 5 36 2.</_></rects>
      <tilted>0</tilted></_>
    <_>
      <rects>
        <_>
          3 17 10 6 -1.</_>
        <_>
          8 17 5 6 2.</_></rects>
      <tilted>0</tilted></_>
    <_>
      <rects>
        <_>
          3 18 2 14 -1.</_>
        <_>
          3 18 1 7 2.</_>
        <_>
          4 25 1 7 2.</_></rects>
      <tilted>0</tilted></_>
    <_>
      <rects>
        <_>
          3 19 20 28 -1.</_>
        <_>
          3 19 10 14 2.</_>
        <_>
          13 33 10 14 2.</_></rects>
      <tilted>0</tilted></_>
    <_>
      <rects>
        <_>
          3 30 1 2 -1.</_>
        <_>
          3 31 1 1 2.</_></rects>
      <tilted>0</tilted></_>
    <_>
      <rects>
        <_>
          3 36 4 2 -1.</_>
        <_>
          3 37 4 1 2.</_></rects>
      <tilted>0</tilted></_>
    <_>
      <rects>
        <_>
          3 43 14 1 -1.</_>
        <_>
          10 43 7 1 2.</_></rects>
      <tilted>0</tilted></_>
    <_>
      <rects>
        <_>
          4 0 4 2 -1.</_>
        <_>
          4 0 2 1 2.</_>
        <_>
          6 1 2 1 2.</_></rects>
      <tilted>0</tilted></_>
    <_>
      <rects>
        <_>
          4 0 36 4 -1.</_>
        <_>
          4 0 18 2 2.</_>
        <_>
          22 2 18 2 2.</_></rects>
      <tilted>0</tilted></_>
    <_>
      <rects>
        <_>
          4 1 2 1 -1.</_>
        <_>
          5 1 1 1 2.</_></rects>
      <tilted>0</tilted></_>
    <_>
      <rects>
        <_>
          4 5 46 12 -1.</_>
        <_>
          4 9 46 4 2.</_></rects>
      <tilted>0</tilted></_>
    <_>
      <rects>
        <_>
          4 9 4 16 -1.</_>
        <_>
          4 9 2 8 2.</_>
        <_>
          6 17 2 8 2.</_></rects>
      <tilted>0</tilted></_>
    <_>
      <rects>
        <_>
          4 22 4 10 -1.</_>
        <_>
          4 27 4 5 2.</_></rects>
      <tilted>0</tilted></_>
    <_>
      <rects>
        <_>
          4 45 4 1 -1.</_>
        <_>
          6 45 2 1 2.</_></rects>
      <tilted>0</tilted></_>
    <_>
      <rects>
        <_>
          4 49 9 1 -1.</_>
        <_>
          7 49 3 1 2.</_></rects>
      <tilted>0</tilted></_>
    <_>
      <rects>
        <_>
          5 1 3 2 -1.</_>
        <_>
          5 2 3 1 2.</_></rects>
      <tilted>0</tilted></_>
    <_>
      <rects>
        <_>
          5 2 2 1 -1.</_>
        <_>
          6 2 1 1 2.</_></rects>
      <tilted>0</tilted></_>
    <_>
      <rects>
        <_>
          5 13 4 2 -1.</_>
        <_>
          5 14 4 1 2.</_></rects>
      <tilted>0</tilted></_>
    <_>
      <rects>
        <_>
          5 29 6 8 -1.</_>
        <_>
          5 29 3 4 2.</_>
        <_>
          8 33 3 4 2.</_></rects>
      <tilted>0</tilted></_>
    <_>
      <rects>
        <_>
          5 32 6 18 -1.</_>
        <_>
          5 32 3 9 2.</_>
        <_>
          8 41 3 9 2.</_></rects>
      <tilted>0</tilted></_>
    <_>
      <rects>
        <_>
          5 43 2 5 -1.</_>
        <_>
          6 43 1 5 2.</_></rects>
      <tilted>0</tilted></_>
    <_>
      <rects>
        <_>
          6 0 2 2 -1.</_>
        <_>
          6 0 1 1 2.</_>
        <_>
          7 1 1 1 2.</_></rects>
      <tilted>0</tilted></_>
    <_>
      <rects>
        <_>
          6 0 2 2 -1.</_>
        <_>
          6 1 2 1 2.</_></rects>
      <tilted>0</tilted></_>
    <_>
      <rects>
        <_>
          6 1 24 2 -1.</_>
        <_>
          6 1 12 1 2.</_>
        <_>
          18 2 12 1 2.</_></rects>
      <tilted>0</tilted></_>
    <_>
      <rects>
        <_>
          6 4 22 4 -1.</_>
        <_>
          6 4 11 2 2.</_>
        <_>
          17 6 11 2 2.</_></rects>
      <tilted>0</tilted></_>
    <_>
      <rects>
        <_>
          6 7 14 26 -1.</_>
        <_>
          6 7 7 13 2.</_>
        <_>
          13 20 7 13 2.</_></rects>
      <tilted>0</tilted></_>
    <_>
      <rects>
        <_>
          6 8 10 1 -1.</_>
        <_>
          11 8 5 1 2.</_></rects>
      <tilted>0</tilted></_>
    <_>
      <rects>
        <_>
          6 18 32 8 -1.</_>
        <_>
          6 18 16 4 2.</_>
        <_>
          22 22 16 4 2.</_></rects>
      <tilted>0</tilted></_>
    <_>
      <rects>
        <_>
          6 25 19 14 -1.</_>
        <_>
          6 32 19 7 2.</_></rects>
      <tilted>0</tilted></_>
    <_>
      <rects>
        <_>
          6 33 28 14 -1.</_>
        <_>
          6 33 14 7 2.</_>
        <_>
          20 40 14 7 2.</_></rects>
      <tilted>0</tilted></_>
    <_>
      <rects>
        <_>
          6 41 12 4 -1.</_>
        <_>
          12 41 6 4 2.</_></rects>
      <tilted>0</tilted></_>
    <_>
      <rects>
        <_>
          6 42 19 4 -1.</_>
        <_>
          6 44 19 2 2.</_></rects>
      <tilted>0</tilted></_>
    <_>
      <rects>
        <_>
          7 0 38 6 -1.</_>
        <_>
          7 3 38 3 2.</_></rects>
      <tilted>0</tilted></_>
    <_>
      <rects>
        <_>
          7 7 1 2 -1.</_>
        <_>
          7 8 1 1 2.</_></rects>
      <tilted>0</tilted></_>
    <_>
      <rects>
        <_>
          7 13 12 14 -1.</_>
        <_>
          13 13 6 14 2.</_></rects>
      <tilted>0</tilted></_>
    <_>
      <rects>
        <_>
          7 22 8 14 -1.</_>
        <_>
          7 22 4 7 2.</_>
        <_>
          11 29 4 7 2.</_></rects>
      <tilted>0</tilted></_>
    <_>
      <rects>
        <_>
          7 25 22 6 -1.</_>
        <_>
          7 28 22 3 2.</_></rects>
      <tilted>0</tilted></_>
    <_>
      <rects>
        <_>
          7 29 16 2 -1.</_>
        <_>
          7 29 8 1 2.</_>
        <_>
          15 30 8 1 2.</_></rects>
      <tilted>0</tilted></_>
    <_>
      <rects>
        <_>
          7 30 2 14 -1.</_>
        <_>
          7 30 1 7 2.</_>
        <_>
          8 37 1 7 2.</_></rects>
      <tilted>0</tilted></_>
    <_>
      <rects>
        <_>
          7 33 18 4 -1.</_>
        <_>
          7 33 9 2 2.</_>
        <_>
          16 35 9 2 2.</_></rects>
      <tilted>0</tilted></_>
    <_>
      <rects>
        <_>
          7 34 2 10 -1.</_>
        <_>
          7 34 1 5 2.</_>
        <_>
          8 39 1 5 2.</_></rects>
      <tilted>0</tilted></_>
    <_>
      <rects>
        <_>
          7 36 4 4 -1.</_>
        <_>
          9 36 2 4 2.</_></rects>
      <tilted>0</tilted></_>
    <_>
      <rects>
        <_>
          7 36 10 8 -1.</_>
        <_>
          7 36 5 4 2.</_>
        <_>
          12 40 5 4 2.</_></rects>
      <tilted>0</tilted></_>
    <_>
      <rects>
        <_>
          7 49 9 1 -1.</_>
        <_>
          10 49 3 1 2.</_></rects>
      <tilted>0</tilted></_>
    <_>
      <rects>
        <_>
          8 2 40 40 -1.</_>
        <_>
          8 22 40 20 2.</_></rects>
      <tilted>0</tilted></_>
    <_>
      <rects>
        <_>
          8 3 12 4 -1.</_>
        <_>
          8 5 12 2 2.</_></rects>
      <tilted>0</tilted></_>
    <_>
      <rects>
        <_>
          8 6 3 2 -1.</_>
        <_>
          8 7 3 1 2.</_></rects>
      <tilted>0</tilted></_>
    <_>
      <rects>
        <_>
          8 9 39 24 -1.</_>
        <_>
          8 17 39 8 2.</_></rects>
      <tilted>0</tilted></_>
    <_>
      <rects>
        <_>
          8 17 8 16 -1.</_>
        <_>
          8 17 4 8 2.</_>
        <_>
          12 25 4 8 2.</_></rects>
      <tilted>0</tilted></_>
    <_>
      <rects>
        <_>
          8 18 8 26 -1.</_>
        <_>
          8 18 4 13 2.</_>
        <_>
          12 31 4 13 2.</_></rects>
      <tilted>0</tilted></_>
    <_>
      <rects>
        <_>
          8 21 6 4 -1.</_>
        <_>
          8 21 3 2 2.</_>
        <_>
          11 23 3 2 2.</_></rects>
      <tilted>0</tilted></_>
    <_>
      <rects>
        <_>
          8 25 12 8 -1.</_>
        <_>
          14 25 6 8 2.</_></rects>
      <tilted>0</tilted></_>
    <_>
      <rects>
        <_>
          8 33 20 8 -1.</_>
        <_>
          8 33 10 4 2.</_>
        <_>
          18 37 10 4 2.</_></rects>
      <tilted>0</tilted></_>
    <_>
      <rects>
        <_>
          8 35 1 2 -1.</_>
        <_>
          8 36 1 1 2.</_></rects>
      <tilted>0</tilted></_>
    <_>
      <rects>
        <_>
          8 41 6 4 -1.</_>
        <_>
          8 43 6 2 2.</_></rects>
      <tilted>0</tilted></_>
    <_>
      <rects>
        <_>
          9 0 31 6 -1.</_>
        <_>
          9 3 31 3 2.</_></rects>
      <tilted>0</tilted></_>
    <_>
      <rects>
        <_>
          9 1 36 44 -1.</_>
        <_>
          9 1 18 22 2.</_>
        <_>
          27 23 18 22 2.</_></rects>
      <tilted>0</tilted></_>
    <_>
      <rects>
        <_>
          9 10 24 1 -1.</_>
        <_>
          21 10 12 1 2.</_></rects>
      <tilted>0</tilted></_>
    <_>
      <rects>
        <_>
          9 41 2 4 -1.</_>
        <_>
          9 41 1 2 2.</_>
        <_>
          10 43 1 2 2.</_></rects>
      <tilted>0</tilted></_>
    <_>
      <rects>
        <_>
          10 7 20 1 -1.</_>
        <_>
          20 7 10 1 2.</_></rects>
      <tilted>0</tilted></_>
    <_>
      <rects>
        <_>
          10 20 5 10 -1.</_>
        <_>
          10 25 5 5 2.</_></rects>
      <tilted>0</tilted></_>
    <_>
      <rects>
        <_>
          10 23 30 22 -1.</_>
        <_>
          10 23 15 11 2.</_>
        <_>
          25 34 15 11 2.</_></rects>
      <tilted>0</tilted></_>
    <_>
      <rects>
        <_>
          10 26 2 2 -1.</_>
        <_>
          10 26 1 1 2.</_>
        <_>
          11 27 1 1 2.</_></rects>
      <tilted>0</tilted></_>
    <_>
      <rects>
        <_>
          11 0 4 2 -1.</_>
        <_>
          13 0 2 2 2.</_></rects>
      <tilted>0</tilted></_>
    <_>
      <rects>
        <_>
          11 2 24 6 -1.</_>
        <_>
          11 2 12 3 2.</_>
        <_>
          23 5 12 3 2.</_></rects>
      <tilted>0</tilted></_>
    <_>
      <rects>
        <_>
          11 3 16 4 -1.</_>
        <_>
          11 3 8 2 2.</_>
        <_>
          19 5 8 2 2.</_></rects>
      <tilted>0</tilted></_>
    <_>
      <rects>
        <_>
          11 5 6 38 -1.</_>
        <_>
          11 5 3 19 2.</_>
        <_>
          14 24 3 19 2.</_></rects>
      <tilted>0</tilted></_>
    <_>
      <rects>
        <_>
          11 5 28 4 -1.</_>
        <_>
          25 5 14 4 2.</_></rects>
      <tilted>0</tilted></_>
    <_>
      <rects>
        <_>
          11 6 4 32 -1.</_>
        <_>
          11 22 4 16 2.</_></rects>
      <tilted>0</tilted></_>
    <_>
      <rects>
        <_>
          11 25 9 2 -1.</_>
        <_>
          11 26 9 1 2.</_></rects>
      <tilted>0</tilted></_>
    <_>
      <rects>
        <_>
          11 43 9 6 -1.</_>
        <_>
          11 46 9 3 2.</_></rects>
      <tilted>0</tilted></_>
    <_>
      <rects>
        <_>
          12 11 38 30 -1.</_>
        <_>
          31 11 19 30 2.</_></rects>
      <tilted>0</tilted></_>
    <_>
      <rects>
        <_>
          12 19 2 18 -1.</_>
        <_>
          13 19 1 18 2.</_></rects>
      <tilted>0</tilted></_>
    <_>
      <rects>
        <_>
          12 21 6 2 -1.</_>
        <_>
          15 21 3 2 2.</_></rects>
      <tilted>0</tilted></_>
    <_>
      <rects>
        <_>
          12 36 14 4 -1.</_>
        <_>
          12 36 7 2 2.</_>
        <_>
          19 38 7 2 2.</_></rects>
      <tilted>0</tilted></_>
    <_>
      <rects>
        <_>
          12 39 2 6 -1.</_>
        <_>
          13 39 1 6 2.</_></rects>
      <tilted>0</tilted></_>
    <_>
      <rects>
        <_>
          12 47 2 1 -1.</_>
        <_>
          13 47 1 1 2.</_></rects>
      <tilted>0</tilted></_>
    <_>
      <rects>
        <_>
          13 4 36 4 -1.</_>
        <_>
          13 4 18 2 2.</_>
        <_>
          31 6 18 2 2.</_></rects>
      <tilted>0</tilted></_>
    <_>
      <rects>
        <_>
          13 8 18 22 -1.</_>
        <_>
          19 8 6 22 2.</_></rects>
      <tilted>0</tilted></_>
    <_>
      <rects>
        <_>
          13 12 20 2 -1.</_>
        <_>
          13 12 10 1 2.</_>
        <_>
          23 13 10 1 2.</_></rects>
      <tilted>0</tilted></_>
    <_>
      <rects>
        <_>
          13 29 12 18 -1.</_>
        <_>
          17 29 4 18 2.</_></rects>
      <tilted>0</tilted></_>
    <_>
      <rects>
        <_>
          13 42 14 6 -1.</_>
        <_>
          13 42 7 3 2.</_>
        <_>
          20 45 7 3 2.</_></rects>
      <tilted>0</tilted></_>
    <_>
      <rects>
        <_>
          13 44 5 6 -1.</_>
        <_>
          13 46 5 2 2.</_></rects>
      <tilted>0</tilted></_>
    <_>
      <rects>
        <_>
          13 48 18 2 -1.</_>
        <_>
          13 48 9 1 2.</_>
        <_>
          22 49 9 1 2.</_></rects>
      <tilted>0</tilted></_>
    <_>
      <rects>
        <_>
          14 0 2 30 -1.</_>
        <_>
          14 0 1 15 2.</_>
        <_>
          15 15 1 15 2.</_></rects>
      <tilted>0</tilted></_>
    <_>
      <rects>
        <_>
          14 1 6 6 -1.</_>
        <_>
          14 1 3 3 2.</_>
        <_>
          17 4 3 3 2.</_></rects>
      <tilted>0</tilted></_>
    <_>
      <rects>
        <_>
          14 2 21 4 -1.</_>
        <_>
          14 4 21 2 2.</_></rects>
      <tilted>0</tilted></_>
    <_>
      <rects>
        <_>
          14 3 14 8 -1.</_>
        <_>
          14 7 14 4 2.</_></rects>
      <tilted>0</tilted></_>
    <_>
      <rects>
        <_>
          14 18 2 4 -1.</_>
        <_>
          14 18 1 2 2.</_>
        <_>
          15 20 1 2 2.</_></rects>
      <tilted>0</tilted></_>
    <_>
      <rects>
        <_>
          14 41 12 4 -1.</_>
        <_>
          14 41 6 2 2.</_>
        <_>
          20 43 6 2 2.</_></rects>
      <tilted>0</tilted></_>
    <_>
      <rects>
        <_>
          14 44 22 2 -1.</_>
        <_>
          14 45 22 1 2.</_></rects>
      <tilted>0</tilted></_>
    <_>
      <rects>
        <_>
          15 10 16 14 -1.</_>
        <_>
          15 10 8 7 2.</_>
        <_>
          23 17 8 7 2.</_></rects>
      <tilted>0</tilted></_>
    <_>
      <rects>
        <_>
          15 23 2 1 -1.</_>
        <_>
          16 23 1 1 2.</_></rects>
      <tilted>0</tilted></_>
    <_>
      <rects>
        <_>
          15 28 2 20 -1.</_>
        <_>
          15 28 1 10 2.</_>
        <_>
          16 38 1 10 2.</_></rects>
      <tilted>0</tilted></_>
    <_>
      <rects>
        <_>
          15 41 4 2 -1.</_>
        <_>
          15 42 4 1 2.</_></rects>
      <tilted>0</tilted></_>
    <_>
      <rects>
        <_>
          16 7 26 13 -1.</_>
        <_>
          29 7 13 13 2.</_></rects>
      <tilted>0</tilted></_>
    <_>
      <rects>
        <_>
          16 13 2 2 -1.</_>
        <_>
