<?xml version="1.0"?>
<opencv_storage>
<cascade>
  <stageType>BOOST</stageType>
  <featureType>HAAR</featureType>
  <height>50</height>
  <width>50</width>
  <stageParams>
    <boostType>GAB</boostType>
    <minHitRate>9.9500000476837158e-01</minHitRate>
    <maxFalseAlarm>5.0000000000000000e-01</maxFalseAlarm>
    <weightTrimRate>9.4999999999999996e-01</weightTrimRate>
    <maxDepth>1</maxDepth>
    <maxWeakCount>100</maxWeakCount></stageParams>
  <featureParams>
    <maxCatCount>0</maxCatCount>
    <featSize>1</featSize>
    <mode>BASIC</mode></featureParams>
  <stageNum>10</stageNum>
  <stages>
    <!-- stage 0 -->
    <_>
      <maxWeakCount>7</maxWeakCount>
      <stageThreshold>-1.0714645385742188e+00</stageThreshold>
      <weakClassifiers>
        <_>
          <internalNodes>
            0 -1 2 -4.4950723648071289e-02</internalNodes>
          <leafValues>
            1.8954248726367950e-01 -5.8620691299438477e-01</leafValues></_>
        <_>
          <internalNodes>
            0 -1 58 -1.4185979671310633e-04</internalNodes>
          <leafValues>
            -4.7809356451034546e-01 2.9698336124420166e-01</leafValues></_>
        <_>
          <internalNodes>
            0 -1 55 9.5459427684545517e-03</internalNodes>
          <leafValues>
            -3.0230855941772461e-01 5.5625009536743164e-01</leafValues></_>
        <_>
          <internalNodes>
            0 -1 40 5.6335600675083697e-05</internalNodes>
          <leafValues>
            -3.5193464159965515e-01 4.1428774595260620e-01</leafValues></_>
        <_>
          <internalNodes>
            0 -1 49 7.3250774294137955e-03</internalNodes>
          <leafValues>
            -1.6267159581184387e-01 8.7328499555587769e-01</leafValues></_>
        <_>
          <internalNodes>
            0 -1 48 -9.5671912276884541e-06</internalNodes>
          <leafValues>
            -4.0795224905014038e-01 4.2303654551506042e-01</leafValues></_>
        <_>
          <internalNodes>
            0 -1 41 -1.5595202057738788e-05</internalNodes>
          <leafValues>
            -4.5461466908454895e-01 3.5914438962936401e-01</leafValues></_></weakClassifiers></_>
    <!-- stage 1 -->
    <_>
      <maxWeakCount>4</maxWeakCount>
      <stageThreshold>-2.1582178771495819e-01</stageThreshold>
      <weakClassifiers>
        <_>
          <internalNodes>
            0 -1 16 -1.2873111292719841e-02</internalNodes>
          <leafValues>
            -9.7333335876464844e-01 -1.0129546247844745e-17</leafValues></_>
        <_>
          <internalNodes>
            0 -1 4 -4.4190824031829834e-02</internalNodes>
          <leafValues>
            6.7797487974166870e-01 -3.0331593751907349e-01</leafValues></_>
        <_>
          <internalNodes>
            0 -1 44 -4.9257844686508179e-02</internalNodes>
          <leafValues>
            7.6347136497497559e-01 -1.9612760841846466e-01</leafValues></_>
        <_>
          <internalNodes>
            0 -1 52 -3.0529762152582407e-03</internalNodes>
          <leafValues>
            2.8362175822257996e-01 -6.3959968090057373e-01</leafValues></_></weakClassifiers></_>
    <!-- stage 2 -->
    <_>
      <maxWeakCount>8</maxWeakCount>
      <stageThreshold>-6.5927904844284058e-01</stageThreshold>
      <weakClassifiers>
        <_>
          <internalNodes>
            0 -1 54 5.9779565781354904e-03</internalNodes>
          <leafValues>
            -4.0740740299224854e-01 6.4912283420562744e-01</leafValues></_>
        <_>
          <internalNodes>
            0 -1 33 4.3091431260108948e-02</internalNodes>
          <leafValues>
            -2.1151860058307648e-01 7.6443326473236084e-01</leafValues></_>
        <_>
          <internalNodes>
            0 -1 34 -1.9179382361471653e-03</internalNodes>
          <leafValues>
            5.6019461154937744e-01 -2.8983509540557861e-01</leafValues></_>
        <_>
          <internalNodes>
            0 -1 43 4.1021672077476978e-03</internalNodes>
          <leafValues>
            -2.7524736523628235e-01 6.4022916555404663e-01</leafValues></_>
        <_>
          <internalNodes>
            0 -1 29 -1.9876472651958466e-03</internalNodes>
          <leafValues>
            7.6522731781005859e-01 -1.6826111078262329e-01</leafValues></_>
        <_>
          <internalNodes>
            0 -1 24 1.1371104046702385e-02</internalNodes>
          <leafValues>
            -2.4270205199718475e-01 6.0772562026977539e-01</leafValues></_>
        <_>
          <internalNodes>
            0 -1 28 1.8806527368724346e-03</internalNodes>
          <leafValues>
            -1.9940225780010223e-01 7.7166968584060669e-01</leafValues></_>
        <_>
          <internalNodes>
            0 -1 6 2.2685460862703621e-05</internalNodes>
          <leafValues>
            2.8506508469581604e-01 -5.9992170333862305e-01</leafValues></_></weakClassifiers></_>
    <!-- stage 3 -->
    <_>
      <maxWeakCount>5</maxWeakCount>
      <stageThreshold>-4.6538197994232178e-01</stageThreshold>
      <weakClassifiers>
        <_>
          <internalNodes>
            0 -1 27 -5.1820157095789909e-03</internalNodes>
          <leafValues>
            5.2808988094329834e-01 -5.0420171022415161e-01</leafValues></_>
        <_>
          <internalNodes>
            0 -1 19 -2.3048324510455132e-03</internalNodes>
          <leafValues>
            8.3238124847412109e-01 -2.6954704523086548e-01</leafValues></_>
        <_>
          <internalNodes>
            0 -1 1 -2.3807740211486816e-01</internalNodes>
          <leafValues>
            -7.3097741603851318e-01 2.8322151303291321e-01</leafValues></_>
        <_>
          <internalNodes>
            0 -1 23 -4.5748392585664988e-04</internalNodes>
          <leafValues>
            7.3531150817871094e-01 -2.5837534666061401e-01</leafValues></_>
        <_>
          <internalNodes>
            0 -1 59 -2.2107582481112331e-05</internalNodes>
          <leafValues>
            -6.4364337921142578e-01 3.0403268337249756e-01</leafValues></_></weakClassifiers></_>
    <!-- stage 4 -->
    <_>
      <maxWeakCount>3</maxWeakCount>
      <stageThreshold>-1.1479409933090210e+00</stageThreshold>
      <weakClassifiers>
        <_>
          <internalNodes>
            0 -1 12 -3.6174520850181580e-01</internalNodes>
          <leafValues>
            -8.0000001192092896e-01 4.0127387642860413e-01</leafValues></_>
        <_>
          <internalNodes>
            0 -1 60 3.4238430089317262e-05</internalNodes>
          <leafValues>
            2.3921842873096466e-01 -8.3535009622573853e-01</leafValues></_>
        <_>
          <internalNodes>
            0 -1 61 -2.7145491912961006e-05</internalNodes>
          <leafValues>
            -7.1386486291885376e-01 2.8627067804336548e-01</leafValues></_></weakClassifiers></_>
    <!-- stage 5 -->
    <_>
      <maxWeakCount>8</maxWeakCount>
      <stageThreshold>-5.7831299304962158e-01</stageThreshold>
      <weakClassifiers>
        <_>
          <internalNodes>
            0 -1 13 -1.2201315257698298e-03</internalNodes>
          <leafValues>
            5.9375000000000000e-01 -4.2205321788787842e-01</leafValues></_>
        <_>
          <internalNodes>
            0 -1 36 -2.3689966648817062e-02</internalNodes>
          <leafValues>
            2.2033505141735077e-01 -8.6359798908233643e-01</leafValues></_>
        <_>
          <internalNodes>
            0 -1 7 2.5643134117126465e-01</internalNodes>
          <leafValues>
            1.4734824001789093e-01 -8.9988958835601807e-01</leafValues></_>
        <_>
          <internalNodes>
            0 -1 31 -8.7226927280426025e-04</internalNodes>
          <leafValues>
            4.3636715412139893e-01 -3.7918558716773987e-01</leafValues></_>
        <_>
          <internalNodes>
            0 -1 42 4.4318113941699266e-04</internalNodes>
          <leafValues>
            -2.5037854909896851e-01 7.1386229991912842e-01</leafValues></_>
        <_>
          <internalNodes>
            0 -1 30 -2.7818046510219574e-04</internalNodes>
          <leafValues>
            6.3150393962860107e-01 -2.5485214591026306e-01</leafValues></_>
        <_>
          <internalNodes>
            0 -1 51 -2.4681608192622662e-03</internalNodes>
          <leafValues>
            8.8283652067184448e-01 -2.0469151437282562e-01</leafValues></_>
        <_>
          <internalNodes>
            0 -1 26 -4.5100419083610177e-04</internalNodes>
          <leafValues>
            7.6274168491363525e-01 -2.0950239896774292e-01</leafValues></_></weakClassifiers></_>
    <!-- stage 6 -->
    <_>
      <maxWeakCount>8</maxWeakCount>
      <stageThreshold>-1.0985301733016968e+00</stageThreshold>
      <weakClassifiers>
        <_>
          <internalNodes>
            0 -1 25 -1.5257450286298990e-03</internalNodes>
          <leafValues>
            8.2978725433349609e-01 -4.0000000596046448e-01</leafValues></_>
        <_>
          <internalNodes>
            0 -1 50 -4.0605901740491390e-03</internalNodes>
          <leafValues>
            -4.5530769228935242e-01 2.8678366541862488e-01</leafValues></_>
        <_>
          <internalNodes>
            0 -1 62 1.4822054072283208e-04</internalNodes>
          <leafValues>
            1.8060176074504852e-01 -6.6783362627029419e-01</leafValues></_>
        <_>
          <internalNodes>
            0 -1 15 -3.1909394238027744e-06</internalNodes>
          <leafValues>
            5.1816129684448242e-01 -2.4226726591587067e-01</leafValues></_>
        <_>
          <internalNodes>
            0 -1 35 3.5952404141426086e-04</internalNodes>
          <leafValues>
            -1.9626839458942413e-01 7.3155927658081055e-01</leafValues></_>
        <_>
          <internalNodes>
            0 -1 37 1.3119033246766776e-04</internalNodes>
          <leafValues>
            -1.3966430723667145e-01 9.4023382663726807e-01</leafValues></_>
        <_>
          <internalNodes>
            0 -1 17 -4.9618846969678998e-04</internalNodes>
          <leafValues>
            6.8675750494003296e-01 -1.8599785864353180e-01</leafValues></_>
        <_>
          <internalNodes>
            0 -1 39 7.8852503793314099e-04</internalNodes>
          <leafValues>
            3.4037354588508606e-01 -5.3468340635299683e-01</leafValues></_></weakClassifiers></_>
    <!-- stage 7 -->
    <_>
      <maxWeakCount>8</maxWeakCount>
      <stageThreshold>-5.6016993522644043e-01</stageThreshold>
      <weakClassifiers>
        <_>
          <internalNodes>
            0 -1 66 2.9434497264446691e-05</internalNodes>
          <leafValues>
            4.3668122962117195e-03 -7.5510203838348389e-01</leafValues></_>
        <_>
          <internalNodes>
            0 -1 0 4.5843746192986146e-05</internalNodes>
          <leafValues>
            1.1905261129140854e-01 -7.8416126966476440e-01</leafValues></_>
        <_>
          <internalNodes>
            0 -1 21 -9.3613313511013985e-03</internalNodes>
          <leafValues>
            5.9268766641616821e-01 -2.0561216771602631e-01</leafValues></_>
        <_>
          <internalNodes>
            0 -1 57 -3.7648305296897888e-03</internalNodes>
          <leafValues>
            5.8882153034210205e-01 -2.1205991506576538e-01</leafValues></_>
        <_>
          <internalNodes>
            0 -1 46 -1.7339721089228988e-03</internalNodes>
          <leafValues>
            4.0492132306098938e-01 -3.4883084893226624e-01</leafValues></_>
        <_>
          <internalNodes>
            0 -1 64 -4.6626731636933982e-04</internalNodes>
          <leafValues>
            -6.9022154808044434e-01 2.7230522036552429e-01</leafValues></_>
        <_>
          <internalNodes>
            0 -1 9 5.7798170018941164e-04</internalNodes>
          <leafValues>
            -2.6984900236129761e-01 6.4866912364959717e-01</leafValues></_>
        <_>
          <internalNodes>
            0 -1 32 -8.0521283962298185e-05</internalNodes>
          <leafValues>
            -5.2954655885696411e-01 2.8923198580741882e-01</leafValues></_></weakClassifiers></_>
    <!-- stage 8 -->
    <_>
      <maxWeakCount>7</maxWeakCount>
      <stageThreshold>-5.5911523103713989e-01</stageThreshold>
      <weakClassifiers>
        <_>
          <internalNodes>
            0 -1 47 -2.7975410223007202e-02</internalNodes>
          <leafValues>
            -6.6666668653488159e-01 7.6923079788684845e-02</leafValues></_>
        <_>
          <internalNodes>
            0 -1 10 -2.3290373064810410e-05</internalNodes>
          <leafValues>
            -5.8362787961959839e-01 2.0604339241981506e-01</leafValues></_>
        <_>
          <internalNodes>
            0 -1 5 -4.0888891089707613e-04</internalNodes>
          <leafValues>
            -7.7036899328231812e-01 1.8337340652942657e-01</leafValues></_>
        <_>
          <internalNodes>
            0 -1 63 6.1994738643988967e-05</internalNodes>
          <leafValues>
            2.0584911108016968e-01 -6.0031700134277344e-01</leafValues></_>
        <_>
          <internalNodes>
            0 -1 45 -4.7455946914851665e-03</internalNodes>
          <leafValues>
            7.6725286245346069e-01 -1.9705332815647125e-01</leafValues></_>
        <_>
          <internalNodes>
            0 -1 56 -1.9344810425536707e-05</internalNodes>
          <leafValues>
            -6.3776510953903198e-01 2.1249002218246460e-01</leafValues></_>
        <_>
          <internalNodes>
            0 -1 53 -2.1477192640304565e-03</internalNodes>
          <leafValues>
            4.9667277932167053e-01 -3.0058816075325012e-01</leafValues></_></weakClassifiers></_>
    <!-- stage 9 -->
    <_>
      <maxWeakCount>9</maxWeakCount>
      <stageThreshold>-8.0612051486968994e-01</stageThreshold>
      <weakClassifiers>
        <_>
          <internalNodes>
            0 -1 18 1.7719879746437073e-02</internalNodes>
          <leafValues>
            -3.8235294818878174e-01 5.6363636255264282e-01</leafValues></_>
        <_>
          <internalNodes>
            0 -1 8 -8.2642342895269394e-03</internalNodes>
          <leafValues>
            6.7021214962005615e-01 -1.9988869130611420e-01</leafValues></_>
        <_>
          <internalNodes>
            0 -1 3 -3.7227237224578857e-01</internalNodes>
          <leafValues>
            -8.2570672035217285e-01 1.6991482675075531e-01</leafValues></_>
        <_>
          <internalNodes>
            0 -1 22 -4.1120557580143213e-04</internalNodes>
          <leafValues>
            4.5084664225578308e-01 -3.4404337406158447e-01</leafValues></_>
        <_>
          <internalNodes>
            0 -1 14 -7.5946655124425888e-04</internalNodes>
          <leafValues>
            4.5932319760322571e-01 -3.4214305877685547e-01</leafValues></_>
        <_>
          <internalNodes>
            0 -1 65 4.1662467992864549e-05</internalNodes>
          <leafValues>
            2.1947845816612244e-01 -7.5242584943771362e-01</leafValues></_>
        <_>
          <internalNodes>
            0 -1 38 -1.9389647059142590e-03</internalNodes>
          <leafValues>
            6.8537539243698120e-01 -1.9614291191101074e-01</leafValues></_>
        <_>
          <internalNodes>
            0 -1 20 -4.4524138793349266e-03</internalNodes>
          <leafValues>
            4.2789518833160400e-01 -3.8199371099472046e-01</leafValues></_>
        <_>
          <internalNodes>
            0 -1 11 -4.0327152237296104e-03</internalNodes>
          <leafValues>
            7.6969659328460693e-01 -1.5041536092758179e-01</leafValues></_></weakClassifiers></_></stages>
  <features>
    <_>
      <rects>
        <_>
          0 0 2 2 -1.</_>
        <_>
          0 0 1 1 2.</_>
        <_>
          1 1 1 1 2.</_></rects>
      <tilted>0</tilted></_>
    <_>
      <rects>
        <_>
          0 0 50 36 -1.</_>
        <_>
          25 0 25 36 2.</_></rects>
      <tilted>0</tilted></_>
    <_>
      <rects>
        <_>
          0 1 3 45 -1.</_>
        <_>
          1 1 1 45 2.</_></rects>
      <tilted>0</tilted></_>
    <_>
      <rects>
        <_>
          0 2 43 48 -1.</_>
        <_>
          0 26 43 24 2.</_></rects>
      <tilted>0</tilted></_>
    <_>
      <rects>
        <_>
          0 6 16 36 -1.</_>
        <_>
          8 6 8 36 2.</_></rects>
      <tilted>0</tilted></_>
    <_>
      <rects>
        <_>
          0 8 2 12 -1.</_>
        <_>
          0 8 1 6 2.</_>
        <_>
          1 14 1 6 2.</_></rects>
      <tilted>0</tilted></_>
    <_>
      <rects>
        <_>
          0 16 2 2 -1.</_>
        <_>
          0 16 1 1 2.</_>
        <_>
          1 17 1 1 2.</_></rects>
      <tilted>0</tilted></_>
    <_>
      <rects>
        <_>
          0 17 46 33 -1.</_>
        <_>
          23 17 23 33 2.</_></rects>
      <tilted>0</tilted></_>
    <_>
      <rects>
        <_>
          0 22 16 4 -1.</_>
        <_>
          8 22 8 4 2.</_></rects>
      <tilted>0</tilted></_>
    <_>
      <rects>
        <_>
          0 26 12 1 -1.</_>
        <_>
          6 26 6 1 2.</_></rects>
      <tilted>0</tilted></_>
    <_>
      <rects>
        <_>
          1 1 2 4 -1.</_>
        <_>
          1 1 1 2 2.</_>
        <_>
          2 3 1 2 2.</_></rects>
      <tilted>0</tilted></_>
    <_>
      <rects>
        <_>
          1 1 32 4 -1.</_>
        <_>
          1 1 16 2 2.</_>
        <_>
          17 3 16 2 2.</_></rects>
      <tilted>0</tilted></_>
    <_>
      <rects>
        <_>
          1 24 43 18 -1.</_>
        <_>
          1 30 43 6 2.</_></rects>
      <tilted>0</tilted></_>
    <_>
      <rects>
        <_>
          2 26 12 4 -1.</_>
        <_>
          2 26 6 2 2.</_>
        <_>
          8 28 6 2 2.</_></rects>
      <tilted>0</tilted></_>
    <_>
      <rects>
        <_>
          2 39 34 2 -1.</_>
        <_>
          2 39 17 1 2.</_>
        <_>
          19 40 17 1 2.</_></rects>
      <tilted>0</tilted></_>
    <_>
      <rects>
        <_>
          2 42 2 2 -1.</_>
        <_>
          2 42 1 1 2.</_>
        <_>
          3 43 1 1 2.</_></rects>
      <tilted>0</tilted></_>
    <_>
      <rects>
        <_>
          3 49 15 1 -1.</_>
        <_>
          8 49 5 1 2.</_></rects>
      <tilted>0</tilted></_>
    <_>
      <rects>
        <_>
          5 11 8 1 -1.</_>
        <_>
          9 11 4 1 2.</_></rects>
      <tilted>0</tilted></_>
    <_>
      <rects>
        <_>
          6 5 19 14 -1.</_>
        <_>
          6 12 19 7 2.</_></rects>
      <tilted>0</tilted></_>
    <_>
      <rects>
        <_>
          6 11 24 4 -1.</_>
        <_>
          6 11 12 2 2.</_>
        <_>
          18 13 12 2 2.</_></rects>
      <tilted>0</tilted></_>
    <_>
      <rects>
        <_>
          6 11 30 16 -1.</_>
        <_>
          6 11 15 8 2.</_>
        <_>
          21 19 15 8 2.</_></rects>
      <tilted>0</tilted></_>
    <_>
      <rects>
        <_>
          6 14 10 24 -1.</_>
        <_>
          6 14 5 12 2.</_>
        <_>
          11 26 5 12 2.</_></rects>
      <tilted>0</tilted></_>
    <_>
      <rects>
        <_>
          7 27 11 4 -1.</_>
        <_>
          7 29 11 2 2.</_></rects>
      <tilted>0</tilted></_>
    <_>
      <rects>
        <_>
          8 10 14 2 -1.</_>
        <_>
          8 10 7 1 2.</_>
        <_>
          15 11 7 1 2.</_></rects>
      <tilted>0</tilted></_>
    <_>
      <rects>
        <_>
          9 6 20 16 -1.</_>
        <_>
          9 6 10 8 2.</_>
        <_>
          19 14 10 8 2.</_></rects>
      <tilted>0</tilted></_>
    <_>
      <rects>
        <_>
          10 3 28 2 -1.</_>
        <_>
          10 4 28 1 2.</_></rects>
      <tilted>0</tilted></_>
    <_>
      <rects>
        <_>
          11 16 2 16 -1.</_>
        <_>
          11 16 1 8 2.</_>
        <_>
          12 24 1 8 2.</_></rects>
      <tilted>0</tilted></_>
    <_>
      <rects>
        <_>
          11 23 9 12 -1.</_>
        <_>
          11 29 9 6 2.</_></rects>
      <tilted>0</tilted></_>
    <_>
      <rects>
        <_>
          12 16 4 16 -1.</_>
        <_>
          12 16 2 8 2.</_>
        <_>
          14 24 2 8 2.</_></rects>
      <tilted>0</tilted></_>
    <_>
      <rects>
        <_>
          15 41 6 8 -1.</_>
        <_>
          15 41 3 4 2.</_>
        <_>
          18 45 3 4 2.</_></rects>
      <tilted>0</tilted></_>
    <_>
      <rects>
        <_>
          15 43 18 2 -1.</_>
        <_>
          15 43 9 1 2.</_>
        <_>
          24 44 9 1 2.</_></rects>
      <tilted>0</tilted></_>
    <_>
      <rects>
        <_>
          18 17 17 4 -1.</_>
        <_>
          18 19 17 2 2.</_></rects>
      <tilted>0</tilted></_>
    <_>
      <rects>
        <_>
          18 18 2 5 -1.</_>
        <_>
          19 18 1 5 2.</_></rects>
      <tilted>0</tilted></_>
    <_>
      <rects>
        <_>
          19 12 22 26 -1.</_>
        <_>
          19 12 11 13 2.</_>
        <_>
          30 25 11 13 2.</_></rects>
      <tilted>0</tilted></_>
    <_>
      <rects>
        <_>
          19 44 24 4 -1.</_>
        <_>
          19 44 12 2 2.</_>
        <_>
          31 46 12 2 2.</_></rects>
      <tilted>0</tilted></_>
    <_>
      <rects>
        <_>
          21 14 2 6 -1.</_>
        <_>
          21 14 1 3 2.</_>
        <_>
          22 17 1 3 2.</_></rects>
      <tilted>0</tilted></_>
    <_>
      <rects>
        <_>
          22 0 12 11 -1.</_>
        <_>
          26 0 4 11 2.</_></rects>
      <tilted>0</tilted></_>
    <_>
      <rects>
        <_>
          22 30 2 2 -1.</_>
        <_>
          22 30 1 1 2.</_>
        <_>
          23 31 1 1 2.</_></rects>
      <tilted>0</tilted></_>
    <_>
      <rects>
        <_>
          24 43 14 4 -1.</_>
        <_>
          24 43 7 2 2.</_>
        <_>
          31 45 7 2 2.</_></rects>
      <tilted>0</tilted></_>
    <_>
      <rects>
        <_>
          25 1 8 8 -1.</_>
        <_>
          29 1 4 8 2.</_></rects>
      <tilted>0</tilted></_>
    <_>
      <rects>
        <_>
          25 20 8 2 -1.</_>
        <_>
          25 20 4 1 2.</_>
        <_>
          29 21 4 1 2.</_></rects>
      <tilted>0</tilted></_>
    <_>
      <rects>
        <_>
          25 24 6 13 -1.</_>
        <_>
          28 24 3 13 2.</_></rects>
      <tilted>0</tilted></_>
    <_>
      <rects>
        <_>
          25 42 4 4 -1.</_>
        <_>
          25 42 2 2 2.</_>
        <_>
          27 44 2 2 2.</_></rects>
      <tilted>0</tilted></_>
    <_>
      <rects>
        <_>
          27 1 8 16 -1.</_>
        <_>
          27 1 4 8 2.</_>
        <_>
          31 9 4 8 2.</_></rects>
      <tilted>0</tilted></_>
    <_>
      <rects>
        <_>
          27 13 20 23 -1.</_>
        <_>
          37 13 10 23 2.</_></rects>
      <tilted>0</tilted></_>
    <_>
      <rects>
        <_>
          29 15 16 6 -1.</_>
        <_>
          29 15 8 3 2.</_>
        <_>
          37 18 8 3 2.</_></rects>
      <tilted>0</tilted></_>
    <_>
      <rects>
        <_>
          29 24 10 14 -1.</_>
        <_>
          29 24 5 7 2.</_>
        <_>
          34 31 5 7 2.</_></rects>
      <tilted>0</tilted></_>
    <_>
      <rects>
        <_>
          30 26 7 9 -1.</_>
        <_>
          30 29 7 3 2.</_></rects>
      <tilted>0</tilted></_>
    <_>
      <rects>
        <_>
          31 3 3 6 -1.</_>
        <_>
          31 6 3 3 2.</_></rects>
      <tilted>0</tilted></_>
    <_>
      <rects>
        <_>
          31 34 8 14 -1.</_>
        <_>
          31 34 4 7 2.</_>
        <_>
          35 41 4 7 2.</_></rects>
      <tilted>0</tilted></_>
    <_>
      <rects>
        <_>
          32 20 9 1 -1.</_>
        <_>
          35 20 3 1 2.</_></rects>
      <tilted>0</tilted></_>
    <_>
      <rects>
        <_>
          32 22 4 14 -1.</_>
        <_>
          32 22 2 7 2.</_>
        <_>
          34 29 2 7 2.</_></rects>
      <tilted>0</tilted></_>
    <_>
      <rects>
        <_>
          34 40 15 1 -1.</_>
        <_>
          39 40 5 1 2.</_></rects>
      <tilted>0</tilted></_>
    <_>
      <rects>
        <_>
          35 6 13 10 -1.</_>
        <_>
          35 11 13 5 2.</_></rects>
      <tilted>0</tilted></_>
    <_>
      <rects>
        <_>
          36 18 8 16 -1.</_>
        <_>
          36 18 4 8 2.</_>
        <_>
          40 26 4 8 2.</_></rects>
      <tilted>0</tilted></_>
    <_>
      <rects>
        <_>
          37 0 10 34 -1.</_>
        <_>
          42 0 5 34 2.</_></rects>
      <tilted>0</tilted></_>
    <_>
      <rects>
        <_>
          41 4 2 1 -1.</_>
        <_>
          42 4 1 1 2.</_></rects>
      <tilted>0</tilted></_>
    <_>
      <rects>
        <_>
          41 11 4 36 -1.</_>
        <_>
          41 11 2 18 2.</_>
        <_>
          43 29 2 18 2.</_></rects>
      <tilted>0</tilted></_>
    <_>
      <rects>
        <_>
          41 39 7 4 -1.</_>
        <_>
          41 41 7 2 2.</_></rects>
      <tilted>0</tilted></_>
    <_>
      <rects>
        <_>
          43 1 2 2 -1.</_>
        <_>
          44 1 1 2 2.</_></rects>
      <tilted>0</tilted></_>
    <_>
      <rects>
        <_>
          44 7 2 2 -1.</_>
        <_>
          44 7 1 1 2.</_>
        <_>
          45 8 1 1 2.</_></rects>
      <tilted>0</tilted></_>
    <_>
      <rects>
        <_>
          45 8 2 2 -1.</_>
        <_>
          45 8 1 1 2.</_>
        <_>
          46 9 1 1 2.</_></rects>
      <tilted>0</tilted></_>
    <_>
      <rects>
        <_>
          45 12 4 2 -1.</_>
        <_>
          47 12 2 2 2.</_></rects>
      <tilted>0</tilted></_>
    <_>
      <rects>
        <_>
          45 20 2 4 -1.</_>
        <_>
          45 20 1 2 2.</_>
        <_>
          46 22 1 2 2.</_></rects>
      <tilted>0</tilted></_>
    <_>
      <rects>
        <_>
          46 17 4 4 -1.</_>
        <_>
          46 19 4 2 2.</_></rects>
      <tilted>0</tilted></_>
    <_>
      <rects>
        <_>
          47 45 2 1 -1.</_>
        <_>
          48 45 1 1 2.</_></rects>
      <tilted>0</tilted></_>
    <_>
      <rects>
        <_>
          48 18 2 1 -1.</_>
        <_>
          49 18 1 1 2.</_></rects>
      <tilted>0</tilted></_></features></cascade>
</opencv_storage>
