<?xml version="1.0"?>
<opencv_storage>
<stage12>
  <maxWeakCount>7</maxWeakCount>
  <stageThreshold>-5.5874192714691162e-01</stageThreshold>
  <weakClassifiers>
    <_>
      <internalNodes>
        0 -1 2738405 -6.4470879733562469e-02</internalNodes>
      <leafValues>
        -8.7142854928970337e-01 2.6984128355979919e-01</leafValues></_>
    <_>
      <internalNodes>
        0 -1 291945 -1.1128827929496765e-02</internalNodes>
      <leafValues>
        -1. 6.1914537101984024e-02</leafValues></_>
    <_>
      <internalNodes>
        0 -1 1026743 -1.2094810605049133e-02</internalNodes>
      <leafValues>
        7.9473072290420532e-01 -2.3136611282825470e-01</leafValues></_>
    <_>
      <internalNodes>
        0 -1 2316353 4.8492620408069342e-05</internalNodes>
      <leafValues>
        -3.8638699054718018e-01 3.8432008028030396e-01</leafValues></_>
    <_>
      <internalNodes>
        0 -1 2004038 1.7137032409664243e-04</internalNodes>
      <leafValues>
        -1.1461529135704041e-01 9.4871270656585693e-01</leafValues></_>
    <_>
      <internalNodes>
        0 -1 683465 -5.9082256630063057e-03</internalNodes>
      <leafValues>
        4.4741529226303101e-01 -3.2110676169395447e-01</leafValues></_>
    <_>
      <internalNodes>
        0 -1 2747396 2.2406969219446182e-04</internalNodes>
      <leafValues>
        -2.3498184978961945e-01 6.7901843786239624e-01</leafValues></_></weakClassifiers></stage12>
</opencv_storage>
