<?xml version="1.0"?>
<opencv_storage>
<stage2>
  <maxWeakCount>8</maxWeakCount>
  <stageThreshold>-6.5927904844284058e-01</stageThreshold>
  <weakClassifiers>
    <_>
      <internalNodes>
        0 -1 2804685 5.9779565781354904e-03</internalNodes>
      <leafValues>
        -4.0740740299224854e-01 6.4912283420562744e-01</leafValues></_>
    <_>
      <internalNodes>
        0 -1 1890980 4.3091431260108948e-02</internalNodes>
      <leafValues>
        -2.1151860058307648e-01 7.6443326473236084e-01</leafValues></_>
    <_>
      <internalNodes>
        0 -1 1931182 -1.9179382361471653e-03</internalNodes>
      <leafValues>
        5.6019461154937744e-01 -2.8983509540557861e-01</leafValues></_>
    <_>
      <internalNodes>
        0 -1 2384410 4.1021672077476978e-03</internalNodes>
      <leafValues>
        -2.7524736523628235e-01 6.4022916555404663e-01</leafValues></_>
    <_>
      <internalNodes>
        0 -1 1619971 -1.9876472651958466e-03</internalNodes>
      <leafValues>
        7.6522731781005859e-01 -1.6826111078262329e-01</leafValues></_>
    <_>
      <internalNodes>
        0 -1 1012459 1.1371104046702385e-02</internalNodes>
      <leafValues>
        -2.4270205199718475e-01 6.0772562026977539e-01</leafValues></_>
    <_>
      <internalNodes>
        0 -1 1323854 1.8806527368724346e-03</internalNodes>
      <leafValues>
        -1.9940225780010223e-01 7.7166968584060669e-01</leafValues></_>
    <_>
      <internalNodes>
        0 -1 64134 2.2685460862703621e-05</internalNodes>
      <leafValues>
        2.8506508469581604e-01 -5.9992170333862305e-01</leafValues></_></weakClassifiers></stage2>
</opencv_storage>
