<?xml version="1.0"?>
<opencv_storage>
<stage6>
  <maxWeakCount>23</maxWeakCount>
  <stageThreshold>-7.1491378545761108e-01</stageThreshold>
  <weakClassifiers>
    <_>
      <internalNodes>
        0 -1 23574 -1.5416853129863739e-02</internalNodes>
      <leafValues>
        6.2962961196899414e-01 -5.1607960462570190e-01</leafValues></_>
    <_>
      <internalNodes>
        0 -1 924350 -1.9661095738410950e-01</internalNodes>
      <leafValues>
        2.3126173764467239e-02 -8.3759897947311401e-01</leafValues></_>
    <_>
      <internalNodes>
        0 -1 1330854 1.3334457762539387e-03</internalNodes>
      <leafValues>
        1.2753823399543762e-01 -7.1354866027832031e-01</leafValues></_>
    <_>
      <internalNodes>
        0 -1 2798573 4.7943122684955597e-02</internalNodes>
      <leafValues>
        -1.1000531911849976e-01 6.2348115444183350e-01</leafValues></_>
    <_>
      <internalNodes>
        0 -1 3024370 -2.0768586546182632e-03</internalNodes>
      <leafValues>
        -5.8822309970855713e-01 1.2434479594230652e-01</leafValues></_>
    <_>
      <internalNodes>
        0 -1 1761361 -4.7160888789221644e-04</internalNodes>
      <leafValues>
        2.4819873273372650e-01 -2.6214602589607239e-01</leafValues></_>
    <_>
      <internalNodes>
        0 -1 274426 8.2482304424047470e-03</internalNodes>
      <leafValues>
        -1.3178600370883942e-01 5.0068342685699463e-01</leafValues></_>
    <_>
      <internalNodes>
        0 -1 119554 1.2080103260814212e-05</internalNodes>
      <leafValues>
        1.4685428142547607e-01 -4.6240872144699097e-01</leafValues></_>
    <_>
      <internalNodes>
        0 -1 1793205 2.6870032888837159e-04</internalNodes>
      <leafValues>
        -1.6892418265342712e-01 4.0376970171928406e-01</leafValues></_>
    <_>
      <internalNodes>
        0 -1 3022315 1.2813994544558227e-04</internalNodes>
      <leafValues>
        7.8039698302745819e-02 -9.0735000371932983e-01</leafValues></_>
    <_>
      <internalNodes>
        0 -1 2043284 -2.6985129807144403e-04</internalNodes>
      <leafValues>
        2.5039708614349365e-01 -2.6547107100486755e-01</leafValues></_>
    <_>
      <internalNodes>
        0 -1 230456 6.0112408391432837e-05</internalNodes>
      <leafValues>
        1.2144424021244049e-01 -5.5655813217163086e-01</leafValues></_>
    <_>
      <internalNodes>
        0 -1 2493089 -2.0768148824572563e-03</internalNodes>
      <leafValues>
        2.9035341739654541e-01 -2.3929177224636078e-01</leafValues></_>
    <_>
      <internalNodes>
        0 -1 2649453 2.2327214479446411e-02</internalNodes>
      <leafValues>
        -1.4614215493202209e-01 4.9826467037200928e-01</leafValues></_>
    <_>
      <internalNodes>
        0 -1 43087 -6.2653798522660509e-06</internalNodes>
      <leafValues>
        -2.5089785456657410e-01 2.4718056619167328e-01</leafValues></_>
    <_>
      <internalNodes>
        0 -1 2046720 -7.0020707789808512e-04</internalNodes>
      <leafValues>
        -5.0635719299316406e-01 1.3160733878612518e-01</leafValues></_>
    <_>
      <internalNodes>
        0 -1 2565084 3.5724502056837082e-02</internalNodes>
      <leafValues>
        -1.1686458438634872e-01 6.0701429843902588e-01</leafValues></_>
    <_>
      <internalNodes>
        0 -1 1606590 -7.4641618994064629e-05</internalNodes>
      <leafValues>
        2.7562612295150757e-01 -2.3902690410614014e-01</leafValues></_>
    <_>
      <internalNodes>
        0 -1 1457211 -1.4230305096134543e-03</internalNodes>
      <leafValues>
        5.1173776388168335e-01 -1.2915073335170746e-01</leafValues></_>
    <_>
      <internalNodes>
        0 -1 2843844 -8.8339431385975331e-05</internalNodes>
      <leafValues>
        -5.1446980237960815e-01 1.4276088774204254e-01</leafValues></_>
    <_>
      <internalNodes>
        0 -1 2731554 -1.3456172018777579e-04</internalNodes>
      <leafValues>
        2.6929053664207458e-01 -2.6000061631202698e-01</leafValues></_>
    <_>
      <internalNodes>
        0 -1 2374192 3.6448985338211060e-04</internalNodes>
      <leafValues>
        1.8874299526214600e-01 -3.5344898700714111e-01</leafValues></_>
    <_>
      <internalNodes>
        0 -1 2407920 -2.7831241488456726e-02</internalNodes>
      <leafValues>
        1.5008759498596191e-01 -4.9653574824333191e-01</leafValues></_></weakClassifiers></stage6>
</opencv_storage>
