<?xml version="1.0"?>
<opencv_storage>
<stage13>
  <maxWeakCount>13</maxWeakCount>
  <stageThreshold>-5.5437970161437988e-01</stageThreshold>
  <weakClassifiers>
    <_>
      <internalNodes>
        0 -1 2645383 -2.3746965453028679e-02</internalNodes>
      <leafValues>
        7.1428573131561279e-01 -3.2653060555458069e-01</leafValues></_>
    <_>
      <internalNodes>
        0 -1 2380908 -2.0343457435956225e-05</internalNodes>
      <leafValues>
        3.5611921548843384e-01 -3.2144632935523987e-01</leafValues></_>
    <_>
      <internalNodes>
        0 -1 2631244 -3.9018184179440141e-04</internalNodes>
      <leafValues>
        -7.6218682527542114e-01 1.8124097585678101e-01</leafValues></_>
    <_>
      <internalNodes>
        0 -1 2250866 -5.2777229575440288e-04</internalNodes>
      <leafValues>
        8.1306809186935425e-01 -1.2335425615310669e-01</leafValues></_>
    <_>
      <internalNodes>
        0 -1 2233107 -7.4498588219285011e-04</internalNodes>
      <leafValues>
        6.0274165868759155e-01 -1.7580716311931610e-01</leafValues></_>
    <_>
      <internalNodes>
        0 -1 2454356 -4.0468530642101541e-06</internalNodes>
      <leafValues>
        3.1949228048324585e-01 -3.2803967595100403e-01</leafValues></_>
    <_>
      <internalNodes>
        0 -1 1053519 -7.5399593697511591e-06</internalNodes>
      <leafValues>
        3.3827766776084900e-01 -3.7110307812690735e-01</leafValues></_>
    <_>
      <internalNodes>
        0 -1 112561 4.2155279516009614e-05</internalNodes>
      <leafValues>
        1.9023865461349487e-01 -6.3063979148864746e-01</leafValues></_>
    <_>
      <internalNodes>
        0 -1 1125558 -3.0422308482229710e-03</internalNodes>
      <leafValues>
        -4.0686145424842834e-01 3.0146381258964539e-01</leafValues></_>
    <_>
      <internalNodes>
        0 -1 2924403 1.0583455150481313e-04</internalNodes>
      <leafValues>
        2.4684731662273407e-01 -4.8003473877906799e-01</leafValues></_>
    <_>
      <internalNodes>
        0 -1 1215629 1.4307649689726532e-04</internalNodes>
      <leafValues>
        -2.2196455299854279e-01 6.7641091346740723e-01</leafValues></_>
    <_>
      <internalNodes>
        0 -1 1737168 1.8100161105394363e-04</internalNodes>
      <leafValues>
        2.2587983310222626e-01 -5.8912742137908936e-01</leafValues></_>
    <_>
      <internalNodes>
        0 -1 2987890 2.6786667149281129e-05</internalNodes>
      <leafValues>
        3.4048637747764587e-01 -3.8973659276962280e-01</leafValues></_></weakClassifiers></stage13>
</opencv_storage>
