<?xml version="1.0"?>
<opencv_storage>
<stage8>
  <maxWeakCount>13</maxWeakCount>
  <stageThreshold>-8.2783079147338867e-01</stageThreshold>
  <weakClassifiers>
    <_>
      <internalNodes>
        0 -1 2019281 9.0569565072655678e-03</internalNodes>
      <leafValues>
        -3.3333334326744080e-01 6.0975611209869385e-01</leafValues></_>
    <_>
      <internalNodes>
        0 -1 87156 -7.6028716284781694e-04</internalNodes>
      <leafValues>
        -6.9677436351776123e-01 1.4451526105403900e-01</leafValues></_>
    <_>
      <internalNodes>
        0 -1 1859782 -8.4072438767179847e-05</internalNodes>
      <leafValues>
        -4.0914118289947510e-01 2.0530021190643311e-01</leafValues></_>
    <_>
      <internalNodes>
        0 -1 361022 -6.7989025264978409e-03</internalNodes>
      <leafValues>
        4.3973073363304138e-01 -2.4739201366901398e-01</leafValues></_>
    <_>
      <internalNodes>
        0 -1 3020253 2.1341562387533486e-05</internalNodes>
      <leafValues>
        2.7209416031837463e-01 -3.7707838416099548e-01</leafValues></_>
    <_>
      <internalNodes>
        0 -1 1366888 -2.6476024650037289e-03</internalNodes>
      <leafValues>
        -8.4493398666381836e-01 1.1984988301992416e-01</leafValues></_>
    <_>
      <internalNodes>
        0 -1 2812278 1.4381516957655549e-03</internalNodes>
      <leafValues>
        -2.4332867562770844e-01 5.6662160158157349e-01</leafValues></_>
    <_>
      <internalNodes>
        0 -1 2922903 3.1200615921989083e-04</internalNodes>
      <leafValues>
        -2.4237646162509918e-01 5.4377198219299316e-01</leafValues></_>
    <_>
      <internalNodes>
        0 -1 2313445 -3.7346332101151347e-04</internalNodes>
      <leafValues>
        -4.6331599354743958e-01 3.2358217239379883e-01</leafValues></_>
    <_>
      <internalNodes>
        0 -1 3023480 3.2481617381563410e-05</internalNodes>
      <leafValues>
        1.8344867229461670e-01 -6.2561607360839844e-01</leafValues></_>
    <_>
      <internalNodes>
        0 -1 1541968 3.2813404686748981e-03</internalNodes>
      <leafValues>
        -1.7892736196517944e-01 7.6371389627456665e-01</leafValues></_>
    <_>
      <internalNodes>
        0 -1 1366889 -4.3673098844010383e-05</internalNodes>
      <leafValues>
        -4.3024125695228577e-01 2.9020223021507263e-01</leafValues></_>
    <_>
      <internalNodes>
        0 -1 688928 -9.9122133105993271e-03</internalNodes>
      <leafValues>
        9.3944543600082397e-01 -1.5668158233165741e-01</leafValues></_></weakClassifiers></stage8>
</opencv_storage>
