<?xml version="1.0"?>
<opencv_storage>
<stage5>
  <maxWeakCount>6</maxWeakCount>
  <stageThreshold>-6.1649698019027710e-01</stageThreshold>
  <weakClassifiers>
    <_>
      <internalNodes>
        0 -1 3020257 2.7073803357779980e-04</internalNodes>
      <leafValues>
        4.6296295523643494e-01 -6.8000000715255737e-01</leafValues></_>
    <_>
      <internalNodes>
        0 -1 2693789 -5.1101762801408768e-04</internalNodes>
      <leafValues>
        8.4391689300537109e-01 -3.2349494099617004e-01</leafValues></_>
    <_>
      <internalNodes>
        0 -1 968388 -4.0972540155053139e-03</internalNodes>
      <leafValues>
        9.4025528430938721e-01 -2.3759067058563232e-01</leafValues></_>
    <_>
      <internalNodes>
        0 -1 277671 8.0285492003895342e-05</internalNodes>
      <leafValues>
        3.4646621346473694e-01 -8.0906409025192261e-01</leafValues></_>
    <_>
      <internalNodes>
        0 -1 2201316 1.2715494449366815e-05</internalNodes>
      <leafValues>
        6.7644572257995605e-01 -4.6702188253402710e-01</leafValues></_>
    <_>
      <internalNodes>
        0 -1 2799056 -2.1061215084046125e-03</internalNodes>
      <leafValues>
        8.8303083181381226e-01 -3.9781865477561951e-01</leafValues></_></weakClassifiers></stage5>
</opencv_storage>
