<?xml version="1.0"?>
<opencv_storage>
<stage6>
  <maxWeakCount>16</maxWeakCount>
  <stageThreshold>-1.0158048868179321e+00</stageThreshold>
  <weakClassifiers>
    <_>
      <internalNodes>
        0 -1 2707699 -6.7133558914065361e-03</internalNodes>
      <leafValues>
        -7.3033708333969116e-01 -2.5000000372529030e-02</leafValues></_>
    <_>
      <internalNodes>
        0 -1 3013506 3.1106668757274747e-05</internalNodes>
      <leafValues>
        1.3889473676681519e-01 -7.1039485931396484e-01</leafValues></_>
    <_>
      <internalNodes>
        0 -1 2711692 -1.5246882685460150e-04</internalNodes>
      <leafValues>
        -8.6383247375488281e-01 1.3019174337387085e-01</leafValues></_>
    <_>
      <internalNodes>
        0 -1 2146298 -3.2606082968413830e-03</internalNodes>
      <leafValues>
        7.1527421474456787e-01 -1.8825107812881470e-01</leafValues></_>
    <_>
      <internalNodes>
        0 -1 1978313 -7.2033880278468132e-03</internalNodes>
      <leafValues>
        2.7875989675521851e-01 -4.1483014822006226e-01</leafValues></_>
    <_>
      <internalNodes>
        0 -1 1641680 -7.1866111829876900e-03</internalNodes>
      <leafValues>
        -3.3214128017425537e-01 3.7826046347618103e-01</leafValues></_>
    <_>
      <internalNodes>
        0 -1 13906 2.0499783204286359e-05</internalNodes>
      <leafValues>
        2.0238955318927765e-01 -6.4226847887039185e-01</leafValues></_>
    <_>
      <internalNodes>
        0 -1 1540139 -1.0873865903704427e-05</internalNodes>
      <leafValues>
        -5.0986069440841675e-01 2.3858119547367096e-01</leafValues></_>
    <_>
      <internalNodes>
        0 -1 1594567 -1.9901832565665245e-03</internalNodes>
      <leafValues>
        4.6806916594505310e-01 -2.8774669766426086e-01</leafValues></_>
    <_>
      <internalNodes>
        0 -1 1759340 2.0078753586858511e-03</internalNodes>
      <leafValues>
        -2.6749074459075928e-01 5.4653042554855347e-01</leafValues></_>
    <_>
      <internalNodes>
        0 -1 105627 -4.0604823880130425e-05</internalNodes>
      <leafValues>
        -6.0269391536712646e-01 2.3465347290039063e-01</leafValues></_>
    <_>
      <internalNodes>
        0 -1 2987856 9.0330395323690027e-05</internalNodes>
      <leafValues>
        1.4661304652690887e-01 -7.2317630052566528e-01</leafValues></_>
    <_>
      <internalNodes>
        0 -1 62904 -2.7278202772140503e-01</internalNodes>
      <leafValues>
        -5.6234121322631836e-01 2.0135580003261566e-01</leafValues></_>
    <_>
      <internalNodes>
        0 -1 3024326 5.3425761871039867e-04</internalNodes>
      <leafValues>
        3.2912167906761169e-01 -3.7379291653633118e-01</leafValues></_>
    <_>
      <internalNodes>
        0 -1 1615768 -4.9217948690056801e-03</internalNodes>
      <leafValues>
        7.8493010997772217e-01 -1.7490468919277191e-01</leafValues></_>
    <_>
      <internalNodes>
        0 -1 1853205 2.3552533239126205e-03</internalNodes>
      <leafValues>
        -1.8947497010231018e-01 6.6669189929962158e-01</leafValues></_></weakClassifiers></stage6>
</opencv_storage>
