<?xml version="1.0"?>
<opencv_storage>
<stage2>
  <maxWeakCount>18</maxWeakCount>
  <stageThreshold>-9.9886083602905273e-01</stageThreshold>
  <weakClassifiers>
    <_>
      <internalNodes>
        0 -1 2388386 -8.6976245045661926e-02</internalNodes>
      <leafValues>
        -9.2899405956268311e-01 -3.1898239254951477e-01</leafValues></_>
    <_>
      <internalNodes>
        0 -1 1438146 -3.5894408822059631e-02</internalNodes>
      <leafValues>
        1.2160959653556347e-02 -8.1528723239898682e-01</leafValues></_>
    <_>
      <internalNodes>
        0 -1 1668407 -5.7632768154144287e-01</internalNodes>
      <leafValues>
        -6.4517360925674438e-01 1.0616423934698105e-01</leafValues></_>
    <_>
      <internalNodes>
        0 -1 864043 -4.7046002000570297e-03</internalNodes>
      <leafValues>
        4.0508773922920227e-01 -2.4564477801322937e-01</leafValues></_>
    <_>
      <internalNodes>
        0 -1 783675 -3.6829193122684956e-03</internalNodes>
      <leafValues>
        7.1789288520812988e-01 -7.9828932881355286e-02</leafValues></_>
    <_>
      <internalNodes>
        0 -1 978020 6.2117613852024078e-03</internalNodes>
      <leafValues>
        -1.7745129764080048e-01 4.8526999354362488e-01</leafValues></_>
    <_>
      <internalNodes>
        0 -1 2629543 -1.0363163892179728e-04</internalNodes>
      <leafValues>
        -5.5230116844177246e-01 1.9196139276027679e-01</leafValues></_>
    <_>
      <internalNodes>
        0 -1 371530 -1.6402073670178652e-03</internalNodes>
      <leafValues>
        5.2155619859695435e-01 -1.9796621799468994e-01</leafValues></_>
    <_>
      <internalNodes>
        0 -1 2608882 2.0312713459134102e-03</internalNodes>
      <leafValues>
        -1.7114575207233429e-01 5.2804684638977051e-01</leafValues></_>
    <_>
      <internalNodes>
        0 -1 901622 -1.2895353138446808e-03</internalNodes>
      <leafValues>
        4.7606396675109863e-01 -2.2149004042148590e-01</leafValues></_>
    <_>
      <internalNodes>
        0 -1 3023863 2.4618097086204216e-05</internalNodes>
      <leafValues>
        2.1215353906154633e-01 -4.7626742720603943e-01</leafValues></_>
    <_>
      <internalNodes>
        0 -1 661970 -9.2264002887532115e-05</internalNodes>
      <leafValues>
        2.8529870510101318e-01 -3.1110867857933044e-01</leafValues></_>
    <_>
      <internalNodes>
        0 -1 2774194 3.9105569012463093e-03</internalNodes>
      <leafValues>
        -1.6690137982368469e-01 5.5133777856826782e-01</leafValues></_>
    <_>
      <internalNodes>
        0 -1 1365388 -2.8795218895538710e-05</internalNodes>
      <leafValues>
        -5.0856095552444458e-01 1.8528518080711365e-01</leafValues></_>
    <_>
      <internalNodes>
        0 -1 351917 1.9426523067522794e-04</internalNodes>
      <leafValues>
        1.2508836388587952e-01 -6.8941611051559448e-01</leafValues></_>
    <_>
      <internalNodes>
        0 -1 1983155 -2.9748493034276180e-05</internalNodes>
      <leafValues>
        2.8793942928314209e-01 -3.2549634575843811e-01</leafValues></_>
    <_>
      <internalNodes>
        0 -1 414958 -6.6386284306645393e-03</internalNodes>
      <leafValues>
        6.3805097341537476e-01 -1.6392324864864349e-01</leafValues></_>
    <_>
      <internalNodes>
        0 -1 1453353 1.0679026599973440e-03</internalNodes>
      <leafValues>
        -1.4430682361125946e-01 6.3939833641052246e-01</leafValues></_></weakClassifiers></stage2>
</opencv_storage>
