<?xml version="1.0"?>
<opencv_storage>
<stage1>
  <maxWeakCount>6</maxWeakCount>
  <stageThreshold>-3.0810007452964783e-01</stageThreshold>
  <weakClassifiers>
    <_>
      <internalNodes>
        0 -1 2523581 -1.1073555797338486e-02</internalNodes>
      <leafValues>
        6.0000002384185791e-01 -4.7791165113449097e-01</leafValues></_>
    <_>
      <internalNodes>
        0 -1 2164401 -1.6170904040336609e-02</internalNodes>
      <leafValues>
        -9.0504497289657593e-01 2.1391010284423828e-01</leafValues></_>
    <_>
      <internalNodes>
        0 -1 1181800 -4.7132242470979691e-03</internalNodes>
      <leafValues>
        2.1225947141647339e-01 -7.0330321788787842e-01</leafValues></_>
    <_>
      <internalNodes>
        0 -1 2699710 7.8915683552622795e-03</internalNodes>
      <leafValues>
        -2.8258511424064636e-01 7.1118611097335815e-01</leafValues></_>
    <_>
      <internalNodes>
        0 -1 356157 1.9853485355270095e-05</internalNodes>
      <leafValues>
        2.6241156458854675e-01 -7.4719923734664917e-01</leafValues></_>
    <_>
      <internalNodes>
        0 -1 1299108 -9.8467245697975159e-03</internalNodes>
      <leafValues>
        9.2597424983978271e-01 -1.9514100253582001e-01</leafValues></_></weakClassifiers></stage1>
</opencv_storage>
