<?xml version="1.0"?>
<opencv_storage>
<stage10>
  <maxWeakCount>13</maxWeakCount>
  <stageThreshold>-7.3645007610321045e-01</stageThreshold>
  <weakClassifiers>
    <_>
      <internalNodes>
        0 -1 1732975 -3.7611968815326691e-02</internalNodes>
      <leafValues>
        9.0476191043853760e-01 -2.9220777750015259e-01</leafValues></_>
    <_>
      <internalNodes>
        0 -1 2712019 2.0326545927673578e-04</internalNodes>
      <leafValues>
        1.8274411559104919e-01 -5.6258159875869751e-01</leafValues></_>
    <_>
      <internalNodes>
        0 -1 3022131 2.4909048806875944e-04</internalNodes>
      <leafValues>
        1.6662718355655670e-01 -6.8132078647613525e-01</leafValues></_>
    <_>
      <internalNodes>
        0 -1 2849743 2.0764144137501717e-02</internalNodes>
      <leafValues>
        -1.9603173434734344e-01 5.8828526735305786e-01</leafValues></_>
    <_>
      <internalNodes>
        0 -1 1221427 8.4256262198323384e-06</internalNodes>
      <leafValues>
        -3.1678560376167297e-01 3.7816771864891052e-01</leafValues></_>
    <_>
      <internalNodes>
        0 -1 3024563 -1.2467832129914314e-04</internalNodes>
      <leafValues>
        -5.5333715677261353e-01 2.7264773845672607e-01</leafValues></_>
    <_>
      <internalNodes>
        0 -1 660462 8.0761621939018369e-04</internalNodes>
      <leafValues>
        -2.0519398152828217e-01 6.8964445590972900e-01</leafValues></_>
    <_>
      <internalNodes>
        0 -1 2979807 8.2442435086704791e-05</internalNodes>
      <leafValues>
        3.4936961531639099e-01 -3.4360232949256897e-01</leafValues></_>
    <_>
      <internalNodes>
        0 -1 90142 -1.9801519811153412e-02</internalNodes>
      <leafValues>
        8.3001875877380371e-01 -1.5549814701080322e-01</leafValues></_>
    <_>
      <internalNodes>
        0 -1 58108 -1.6933154314756393e-02</internalNodes>
      <leafValues>
        6.1622256040573120e-01 -1.8511442840099335e-01</leafValues></_>
    <_>
      <internalNodes>
        0 -1 150449 5.5195810273289680e-04</internalNodes>
      <leafValues>
        -3.1777989864349365e-01 3.9837750792503357e-01</leafValues></_>
    <_>
      <internalNodes>
        0 -1 2924994 -2.1987278159940615e-05</internalNodes>
      <leafValues>
        -5.9918797016143799e-01 1.9633296132087708e-01</leafValues></_>
    <_>
      <internalNodes>
        0 -1 1530331 -2.1679303608834743e-03</internalNodes>
      <leafValues>
        5.1438784599304199e-01 -2.3556005954742432e-01</leafValues></_></weakClassifiers></stage10>
</opencv_storage>
