<?xml version="1.0"?>
<opencv_storage>
<stage14>
  <maxWeakCount>30</maxWeakCount>
  <stageThreshold>-7.8484493494033813e-01</stageThreshold>
  <weakClassifiers>
    <_>
      <internalNodes>
        0 -1 246645 -1.3323289342224598e-02</internalNodes>
      <leafValues>
        5.1724135875701904e-01 -5.1459294557571411e-01</leafValues></_>
    <_>
      <internalNodes>
        0 -1 2487966 -1.0433874558657408e-03</internalNodes>
      <leafValues>
        -5.9809935092926025e-01 2.6441527530550957e-02</leafValues></_>
    <_>
      <internalNodes>
        0 -1 2660866 -4.1148497984977439e-05</internalNodes>
      <leafValues>
        2.7815073728561401e-01 -1.8413215875625610e-01</leafValues></_>
    <_>
      <internalNodes>
        0 -1 2883084 -1.5752746548969299e-05</internalNodes>
      <leafValues>
        3.0844989418983459e-01 -1.7288570106029510e-01</leafValues></_>
    <_>
      <internalNodes>
        0 -1 945490 1.0494660586118698e-02</internalNodes>
      <leafValues>
        -1.0257833451032639e-01 6.4720416069030762e-01</leafValues></_>
    <_>
      <internalNodes>
        0 -1 2847737 -1.2588620302267373e-04</internalNodes>
      <leafValues>
        -3.2495796680450439e-01 1.6394655406475067e-01</leafValues></_>
    <_>
      <internalNodes>
        0 -1 2177309 -5.1669012755155563e-03</internalNodes>
      <leafValues>
        -6.5312218666076660e-01 7.9730257391929626e-02</leafValues></_>
    <_>
      <internalNodes>
        0 -1 89776 2.4693710729479790e-03</internalNodes>
      <leafValues>
        -9.0800680220127106e-02 6.5888047218322754e-01</leafValues></_>
    <_>
      <internalNodes>
        0 -1 131439 -2.9658279381692410e-03</internalNodes>
      <leafValues>
        4.0987482666969299e-01 -1.3834179937839508e-01</leafValues></_>
    <_>
      <internalNodes>
        0 -1 1935101 1.7912569455802441e-04</internalNodes>
      <leafValues>
        1.8981814384460449e-01 -3.3026716113090515e-01</leafValues></_>
    <_>
      <internalNodes>
        0 -1 2611380 1.4754198491573334e-03</internalNodes>
      <leafValues>
        -2.4710583686828613e-01 2.3492841422557831e-01</leafValues></_>
    <_>
      <internalNodes>
        0 -1 880253 3.0272908043116331e-04</internalNodes>
      <leafValues>
        2.1329155564308167e-01 -2.9455649852752686e-01</leafValues></_>
    <_>
      <internalNodes>
        0 -1 1361309 2.2757826081942767e-04</internalNodes>
      <leafValues>
        -1.4978206157684326e-01 4.2293664813041687e-01</leafValues></_>
    <_>
      <internalNodes>
        0 -1 2965807 -8.3015242125838995e-05</internalNodes>
      <leafValues>
        4.0300598740577698e-01 -1.5007834136486053e-01</leafValues></_>
    <_>
      <internalNodes>
        0 -1 331723 -3.5820412449538708e-03</internalNodes>
      <leafValues>
        6.1760288476943970e-01 -1.0342188179492950e-01</leafValues></_>
    <_>
      <internalNodes>
        0 -1 417422 -2.7367298025637865e-04</internalNodes>
      <leafValues>
        -3.9024806022644043e-01 1.5681053698062897e-01</leafValues></_>
    <_>
      <internalNodes>
        0 -1 2749607 5.1608833018690348e-04</internalNodes>
      <leafValues>
        -1.5395779907703400e-01 4.9062252044677734e-01</leafValues></_>
    <_>
      <internalNodes>
        0 -1 1702849 -7.7976274042157456e-06</internalNodes>
      <leafValues>
        -3.3458662033081055e-01 2.0179119706153870e-01</leafValues></_>
    <_>
      <internalNodes>
        0 -1 1451323 -9.3333013355731964e-03</internalNodes>
      <leafValues>
        9.4331908226013184e-01 -6.6884160041809082e-02</leafValues></_>
    <_>
      <internalNodes>
        0 -1 229345 -2.1945648768451065e-05</internalNodes>
      <leafValues>
        -3.9619338512420654e-01 1.6338707506656647e-01</leafValues></_>
    <_>
      <internalNodes>
        0 -1 191344 1.8447421025484800e-03</internalNodes>
      <leafValues>
        -1.1295115947723389e-01 5.3542608022689819e-01</leafValues></_>
    <_>
      <internalNodes>
        0 -1 327319 4.0443409234285355e-03</internalNodes>
      <leafValues>
        8.5206963121891022e-02 -7.5356960296630859e-01</leafValues></_>
    <_>
      <internalNodes>
        0 -1 348770 6.3823739765211940e-05</internalNodes>
      <leafValues>
        2.2252915799617767e-01 -3.2566794753074646e-01</leafValues></_>
    <_>
      <internalNodes>
        0 -1 173424 1.0590353049337864e-03</internalNodes>
      <leafValues>
        7.3193952441215515e-02 -8.0363351106643677e-01</leafValues></_>
    <_>
      <internalNodes>
        0 -1 812531 -2.0228890934959054e-04</internalNodes>
      <leafValues>
        6.7351871728897095e-01 -1.0557191818952560e-01</leafValues></_>
    <_>
      <internalNodes>
        0 -1 2322888 1.1907594744116068e-03</internalNodes>
      <leafValues>
        -6.9929078221321106e-02 7.8179830312728882e-01</leafValues></_>
    <_>
      <internalNodes>
        0 -1 1982205 2.4434179067611694e-03</internalNodes>
      <leafValues>
        1.3483232259750366e-01 -6.0926067829132080e-01</leafValues></_>
    <_>
      <internalNodes>
        0 -1 1677356 7.7936165034770966e-03</internalNodes>
      <leafValues>
        -1.1543834209442139e-01 6.9576150178909302e-01</leafValues></_>
    <_>
      <internalNodes>
        0 -1 1729705 1.7531285993754864e-03</internalNodes>
      <leafValues>
        -1.0454785823822021e-01 5.7267546653747559e-01</leafValues></_>
    <_>
      <internalNodes>
        0 -1 1619983 1.0188713349634781e-04</internalNodes>
      <leafValues>
        1.7309008538722992e-01 -3.8723111152648926e-01</leafValues></_></weakClassifiers></stage14>
</opencv_storage>
