<?xml version="1.0"?>
<opencv_storage>
<stage2>
  <maxWeakCount>5</maxWeakCount>
  <stageThreshold>-3.8201576471328735e-01</stageThreshold>
  <weakClassifiers>
    <_>
      <internalNodes>
        0 -1 2219642 5.1394652109593153e-04</internalNodes>
      <leafValues>
        -1.3636364042758942e-01 1.</leafValues></_>
    <_>
      <internalNodes>
        0 -1 2102486 1.1135214008390903e-03</internalNodes>
      <leafValues>
        -2.6776200532913208e-01 8.6589592695236206e-01</leafValues></_>
    <_>
      <internalNodes>
        0 -1 2861095 -1.2759584933519363e-03</internalNodes>
      <leafValues>
        8.2267630100250244e-01 -3.7039104104042053e-01</leafValues></_>
    <_>
      <internalNodes>
        0 -1 851580 -5.7562030851840973e-03</internalNodes>
      <leafValues>
        1. -2.8967112302780151e-01</leafValues></_>
    <_>
      <internalNodes>
        0 -1 2883931 -9.1839497908949852e-03</internalNodes>
      <leafValues>
        -5.1089531183242798e-01 6.8421721458435059e-01</leafValues></_></weakClassifiers></stage2>
</opencv_storage>
