<?xml version="1.0"?>
<opencv_storage>
<stage5>
  <maxWeakCount>8</maxWeakCount>
  <stageThreshold>-5.7831299304962158e-01</stageThreshold>
  <weakClassifiers>
    <_>
      <internalNodes>
        0 -1 325376 -1.2201315257698298e-03</internalNodes>
      <leafValues>
        5.9375000000000000e-01 -4.2205321788787842e-01</leafValues></_>
    <_>
      <internalNodes>
        0 -1 2072877 -2.3689966648817062e-02</internalNodes>
      <leafValues>
        2.2033505141735077e-01 -8.6359798908233643e-01</leafValues></_>
    <_>
      <internalNodes>
        0 -1 69624 2.5643134117126465e-01</internalNodes>
      <leafValues>
        1.4734824001789093e-01 -8.9988958835601807e-01</leafValues></_>
    <_>
      <internalNodes>
        0 -1 1827056 -8.7226927280426025e-04</internalNodes>
      <leafValues>
        4.3636715412139893e-01 -3.7918558716773987e-01</leafValues></_>
    <_>
      <internalNodes>
        0 -1 2322473 4.4318113941699266e-04</internalNodes>
      <leafValues>
        -2.5037854909896851e-01 7.1386229991912842e-01</leafValues></_>
    <_>
      <internalNodes>
        0 -1 1621142 -2.7818046510219574e-04</internalNodes>
      <leafValues>
        6.3150393962860107e-01 -2.5485214591026306e-01</leafValues></_>
    <_>
      <internalNodes>
        0 -1 2659028 -2.4681608192622662e-03</internalNodes>
      <leafValues>
        8.8283652067184448e-01 -2.0469151437282562e-01</leafValues></_>
    <_>
      <internalNodes>
        0 -1 1232016 -4.5100419083610177e-04</internalNodes>
      <leafValues>
        7.6274168491363525e-01 -2.0950239896774292e-01</leafValues></_></weakClassifiers></stage5>
</opencv_storage>
