<?xml version="1.0"?>
<opencv_storage>
<stage12>
  <maxWeakCount>12</maxWeakCount>
  <stageThreshold>-4.6136370301246643e-01</stageThreshold>
  <weakClassifiers>
    <_>
      <internalNodes>
        0 -1 1714126 -8.0975110176950693e-04</internalNodes>
      <leafValues>
        7.5000000000000000e-01 -3.5416665673255920e-01</leafValues></_>
    <_>
      <internalNodes>
        0 -1 1714131 2.1584886126220226e-03</internalNodes>
      <leafValues>
        -1.4862827956676483e-01 6.7223680019378662e-01</leafValues></_>
    <_>
      <internalNodes>
        0 -1 1966894 -2.4677973124198616e-04</internalNodes>
      <leafValues>
        4.8722979426383972e-01 -1.8863601982593536e-01</leafValues></_>
    <_>
      <internalNodes>
        0 -1 1857461 2.6538888923823833e-03</internalNodes>
      <leafValues>
        -1.8425971269607544e-01 7.0814085006713867e-01</leafValues></_>
    <_>
      <internalNodes>
        0 -1 1470650 -7.7554793097078800e-03</internalNodes>
      <leafValues>
        6.8536543846130371e-01 -1.2693040072917938e-01</leafValues></_>
    <_>
      <internalNodes>
        0 -1 2690494 -4.3568741530179977e-03</internalNodes>
      <leafValues>
        6.1554908752441406e-01 -1.5026634931564331e-01</leafValues></_>
    <_>
      <internalNodes>
        0 -1 233144 3.2565963920205832e-05</internalNodes>
      <leafValues>
        2.4253615736961365e-01 -4.4478994607925415e-01</leafValues></_>
    <_>
      <internalNodes>
        0 -1 1908206 8.5285995155572891e-03</internalNodes>
      <leafValues>
        -9.2191725969314575e-02 8.3817845582962036e-01</leafValues></_>
    <_>
      <internalNodes>
        0 -1 1512929 -1.5935880946926773e-04</internalNodes>
      <leafValues>
        7.1452975273132324e-01 -1.7427936196327209e-01</leafValues></_>
    <_>
      <internalNodes>
        0 -1 110909 -3.7221794482320547e-03</internalNodes>
      <leafValues>
        5.2699255943298340e-01 -2.2461871802806854e-01</leafValues></_>
    <_>
      <internalNodes>
        0 -1 2617091 -7.4582628905773163e-02</internalNodes>
      <leafValues>
        -8.6150097846984863e-01 1.7395502328872681e-01</leafValues></_>
    <_>
      <internalNodes>
        0 -1 2510365 -5.6916452012956142e-04</internalNodes>
      <leafValues>
        -6.6135472059249878e-01 1.7955429852008820e-01</leafValues></_></weakClassifiers></stage12>
</opencv_storage>
